329 100
home -0.092998 0.16297 0.73724 -0.37971 -0.077342 0.76823 -0.074471 0.2472 -0.29568 0.26877 0.16257 -0.57607 0.14767 0.17896 0.12081 -0.051907 0.43795 0.25028 -0.62697 0.6331 0.43648 0.43814 0.75078 0.42543 0.084075 -0.31261 -0.49792 -0.60304 -0.32523 0.1209 -0.077789 0.26272 0.29894 0.85102 0.13084 0.47982 -0.43993 0.47408 -0.06119 -0.48955 0.3537 -0.50504 0.12695 -0.6797 0.54241 0.13003 0.19291 -0.17411 0.85916 -0.26002 -0.30243 -0.51926 0.10875 0.71831 0.019399 -2.7363 -0.54512 -0.34702 1.6927 0.58821 -0.24435 0.59183 0.13423 -0.16698 0.25298 0.26853 0.63114 0.046757 -0.12598 0.045965 -0.3553 -0.020918 -0.14581 -1.2608 0.16349 0.62281 -0.12171 -0.030637 -0.89189 0.26495 0.50661 0.70529 -0.29213 0.21897 -0.87666 -0.39202 -0.015993 -0.096598 -0.54524 -0.33413 0.17284 -0.29763 0.78264 0.057181 -1.3875 -0.30772 0.36735 0.57373 0.93698 -0.30258
house -0.18867 -0.040943 0.58878 0.11062 0.14236 0.4885 -0.31832 0.53819 -0.018549 0.029687 0.30299 -0.16522 -0.18896 0.5148 -0.79405 0.26409 0.027747 0.041163 -0.49378 -0.14263 0.29017 -0.25369 0.70559 -1.0501 -0.49344 -0.37148 -0.85796 -0.55158 -0.60251 -0.0099676 0.8725 0.12149 0.551 0.49924 -0.3088 1.1067 -0.15494 -0.29923 0.91149 0.19859 -0.73946 -1.0182 0.37208 -0.10043 0.13537 -0.52687 -0.60437 -0.15906 0.49283 -0.61386 0.046815 -0.88806 0.60229 0.72199 -0.4316 -3.0706 -0.11233 -0.45713 0.95737 0.59174 -0.17124 0.65746 0.44741 0.6101 1.0216 -0.2458 0.90191 0.78319 0.28272 -0.4539 0.16309 -0.0078932 -0.27714 -0.87249 -0.19716 -0.076285 -0.28422 -0.089584 -1.3132 0.16372 -0.25441 -0.076529 0.44458 -0.17525 -0.74084 -0.25415 0.52886 -0.46958 0.16487 -0.57443 0.47239 -0.52798 0.65184 0.803 -0.93156 -0.055967 0.26932 0.16221 1.1238 -0.4168
game 0.062659 0.026003 1.122 -0.84123 -0.56907 0.86677 0.99235 -0.19032 -0.74226 -0.29547 0.037746 -0.71756 -0.44891 -0.65801 0.17469 0.50347 0.21268 1.0438 -0.60034 0.48838 0.16955 -0.070132 -0.070228 0.50193 1.3543 -0.27193 -0.16449 0.37399 -0.14291 0.19646 -0.80925 0.86245 -0.2118 -0.074321 0.38522 -0.34137 -1.2694 0.59967 -0.84746 -0.68818 0.68874 -0.19769 0.2064 -0.20387 -0.33651 0.093972 0.34192 -0.68139 0.61451 -0.88127 -0.13401 -0.088989 -0.098916 0.73405 0.33496 -3.1068 -0.22643 -0.21568 1.3375 1.5472 -1.2343 0.42964 -0.78932 -0.027462 0.34738 0.17338 0.24975 -0.010451 -0.71149 0.55568 -0.20869 0.074445 0.29833 -0.029668 -0.01595 0.46368 -0.80873 0.11564 -0.14607 0.73785 0.33548 0.18176 -1.2688 0.21146 -1.5877 0.10299 -0.55312 -0.12812 -0.035095 0.12023 -0.40742 0.21107 -0.4187 0.12999 -0.16549 -0.55023 -0.61101 0.46126 0.88781 -0.031292
good -0.030769 0.11993 0.53909 -0.43696 -0.73937 -0.15345 0.081126 -0.38559 -0.68797 -0.41632 -0.13183 -0.24922 0.441 0.085919 0.20871 -0.063582 0.062228 -0.051234 -0.13398 1.1418 0.036526 0.49029 -0.24567 -0.412 0.12349 0.41336 -0.48397 -0.54243 -0.27787 -0.26015 -0.38485 0.78656 0.1023 -0.20712 0.40751 0.32026 -0.51052 0.48362 -0.0099498 -0.38685 0.034975 -0.167 0.4237 -0.54164 -0.30323 -0.36983 0.082836 -0.52538 -0.064531 -1.398 -0.14873 -0.35327 -0.1118 1.0912 0.095864 -2.8129 0.45238 0.46213 1.6012 -0.20837 -0.27377 0.71197 -1.0754 -0.046974 0.67479 -0.065839 0.75824 0.39405 0.15507 -0.64719 0.32796 -0.031748 0.52899 -0.43886 0.67405 0.42136 -0.11981 -0.21777 -0.29756 -0.1351 0.59898 0.46529 -0.58258 -0.02323 -1.5442 0.01901 -0.015877 0.024499 -0.58017 -0.67659 -0.040379 -0.44043 0.083292 0.20035 -0.75499 0.16918 -0.26573 -0.52878 0.17584 1.065
system 0.024339 0.34017 0.90581 -0.43641 -0.20292 -0.0094631 -0.04095 0.22775 0.15809 0.28631 -0.17347 -0.11878 0.021363 -0.047788 0.30327 -0.64825 0.7603 0.18575 0.019165 -0.25593 -0.86698 -0.49651 0.28971 -0.24029 0.059603 -0.89378 -0.29787 -0.17243 -0.40194 0.22593 0.66489 1.5082 -0.40496 0.18286 0.57827 -0.18159 -0.11477 -0.54278 0.062812 -0.53712 -0.29214 -0.71204 -0.26863 -0.23439 0.12416 -0.044891 0.45775 -0.30158 -0.19677 -0.2325 -0.099735 0.40147 0.03127 1.1922 0.2154 -2.2804 0.81389 0.015208 2.5611 0.82787 -0.02002 -0.25509 0.15967 0.63091 0.68726 0.30326 -0.60553 -0.39075 0.77965 -0.046028 0.15613 -0.25168 0.16372 -0.18265 0.3816 -0.5664 0.37187 0.74538 -0.74559 -0.060125 0.79418 -0.11012 -1.0181 0.35339 -1.9449 1.0344 0.26498 -0.41305 -0.28208 -0.030853 0.16749 0.30701 -0.51688 0.64302 0.55148 0.17972 0.1438 -0.80994 0.67766 -0.21237
building 0.6005 0.33204 -0.49294 0.75419 0.048023 -0.083043 -0.39718 0.37912 0.38602 1.0305 0.89795 -0.4345 0.25965 0.37307 -0.28395 -0.32199 0.23112 0.66848 -0.44291 -0.43475 -0.046315 0.18962 0.045551 -0.79974 0.19711 -0.90737 -0.42556 -0.18526 -0.83046 0.52057 -0.085309 0.37004 0.37261 0.46791 -0.011974 -0.22894 0.062635 -0.52736 0.13784 0.11571 -0.085667 -0.82202 0.3249 0.16222 0.97131 0.34441 0.055378 0.45237 0.16631 -0.41808 -0.014013 -0.43101 -0.0046088 1.2581 -0.43896 -2.8801 -0.27207 -0.41413 1.7549 0.32325 -0.54772 0.6094 0.29493 0.88821 0.51222 -0.083026 0.46329 0.35006 0.044343 -0.42597 0.30314 0.016289 -0.17063 -0.84313 0.42691 -0.44621 0.72385 0.53712 -1.0227 0.16039 0.24787 0.1896 -0.15978 0.335 -0.25762 0.59294 0.31852 -0.96735 -0.31029 -0.24304 0.87434 -0.89644 0.33386 0.45251 -0.68254 -0.080321 0.2321 -0.6033 1.1377 0.30186
television -0.010888 -0.80885 -0.013296 -0.32027 0.45088 0.023415 -0.015468 0.47318 0.12199 0.020567 0.029681 -0.48913 -0.098042 0.020116 0.036447 -0.40355 0.48529 -0.21525 0.45533 0.5196 -0.31335 0.23834 0.32546 -0.64847 0.93403 -0.45582 1.1074 0.72203 -0.016923 0.77606 0.70454 0.83892 -0.40127 0.5059 0.17975 0.3246 -0.23174 0.0062842 -0.48669 0.22757 -0.043211 0.6737 -1.1717 1.0446 -0.0043275 -0.58885 -0.3602 -0.72879 0.039973 -0.49522 -0.70521 0.23219 0.87841 1.2892 0.44872 -2.7521 -0.75959 0.60512 1.4796 0.59059 0.1692 0.80095 -0.037526 -0.76558 0.9089 0.19317 0.43614 0.23321 -0.35129 1.1388 0.29261 -0.18177 0.61301 0.079563 -0.18368 0.39087 0.43471 0.59152 -0.85969 0.02614 0.27994 -0.74208 0.61734 0.26452 -1.631 -0.69672 -0.77924 0.67564 0.074164 -0.44104 0.92653 -0.01068 -0.06593 -0.051338 -1.166 0.0028203 0.16539 0.10771 1.021 0.48629
defense -0.39535 -0.33606 0.60404 -0.16671 -0.65946 -0.35613 0.10023 -0.43728 -0.60848 0.37538 0.37683 -0.71706 -0.81207 0.55477 -0.22759 -0.44854 0.31565 -0.076573 -0.86981 -0.23986 0.16 -0.37546 0.074597 0.089889 -0.1294 -0.24405 0.026902 -0.22259 -0.36263 -0.0069711 -0.37745 0.58288 -0.27145 -0.3042 -0.080941 0.049266 -0.44878 0.54366 0.041571 0.48209 0.12645 -0.20757 0.64275 0.36345 0.48939 -0.75427 -0.11891 -0.12759 -0.44471 -0.85112 0.95448 0.026159 0.072515 1.0714 0.32151 -1.4078 0.35535 -0.37765 1.9041 1.126 -0.17959 0.20037 0.43631 -0.29004 0.22986 -0.278 0.4232 1.2875 -0.55425 0.96368 1.0701 -0.59389 0.31482 -0.98123 -0.074476 0.040791 -0.79896 1.2029 -0.64292 0.89622 1.0299 0.60378 -0.12131 -0.065716 -1.4349 -0.45964 0.38458 0.83289 0.52942 -0.63169 0.74546 -0.61568 -0.70045 0.40139 -0.1225 0.44897 -0.10623 -0.31694 0.61783 0.10625
church 0.65208 0.88673 -0.92677 0.36594 -0.27136 1.6288 -0.43925 -0.32365 0.32722 -0.094807 -0.0066092 -0.11342 0.97555 1.2995 -0.36211 -0.73154 0.19194 0.49559 -1.3327 0.40846 -0.5447 0.066567 0.22727 0.19301 -0.57776 -1.0744 -0.24875 -0.27347 -0.011124 0.75919 0.32591 -0.30455 0.45676 0.56435 -0.51992 0.20328 0.13048 0.051825 0.455 0.017413 -1.1311 0.044359 0.96767 -0.0084915 -0.093459 -0.92305 0.60152 -0.1942 0.41414 -0.18956 0.35904 0.030165 -0.21746 -0.055542 -0.90287 -3.2786 -0.4564 -0.60983 1.4463 0.022184 0.077634 -0.082118 0.51534 -0.26548 -0.026233 -0.8815 0.048907 0.21963 0.48308 -0.67316 0.14468 0.054254 0.14102 -0.69629 0.71758 -0.99879 0.45825 0.35187 -0.50618 -0.085029 -0.73855 0.071371 0.16132 0.85666 -0.58674 -0.32589 -0.31769 -0.71319 0.83816 -0.067679 0.15486 -1.0978 -0.07903 0.86293 -0.82527 -0.87483 -0.19082 -0.41886 0.54264 0.25527
food -0.16486 0.91997 0.22737 -0.49031 -0.0018082 -0.33803 0.057221 0.14601 0.40202 -0.28858 -0.47495 -0.56369 0.27037 0.51702 -0.11241 0.18314 0.22066 -0.48606 -0.87284 -0.062587 0.043016 0.23641 0.59705 -0.3864 -0.25194 0.96862 -0.43112 -0.4837 -1.1396 0.092425 -0.11476 -0.074291 -0.062524 -0.095122 -0.22714 0.88291 0.39978 0.76631 -0.67697 -0.62829 -0.11872 -0.24492 -0.58893 -0.85088 1.1107 0.4219 -1.5072 -0.19509 -0.26712 -0.70801 0.55075 -0.046929 -0.25203 0.74411 -0.18325 -1.4885 -0.46393 -0.10338 2.3525 -0.15421 0.39833 0.015344 0.080708 -0.27373 0.97057 -0.019383 0.20899 -0.64033 0.92509 -0.45371 -0.70564 -0.16033 -0.071761 0.62856 0.35732 0.88802 -0.69127 0.049634 -0.93347 0.65396 0.37165 0.058363 -1.0152 0.70845 -1.3542 -0.3639 0.25994 -0.1826 -0.9893 -0.44699 0.85016 0.094532 0.37019 -0.50354 -1.2083 -0.35776 0.23899 -0.067904 1.5072 0.60889
car -0.1684 -0.53827 0.31155 -0.53218 0.26678 -0.13638 0.36621 0.68383 0.77726 0.68049 0.69137 0.2103 0.091065 0.24845 -0.16157 0.46291 -0.1503 0.2562 -0.1199 0.5913 1.0351 -0.2052 0.30244 -0.34101 0.6326 -0.31603 -0.9959 -0.33583 0.25161 0.10323 0.019611 0.54893 -0.33433 0.29617 0.41218 0.4207 0.25775 0.12709 0.80269 0.61944 0.54316 -0.5941 0.87551 -0.063686 -0.29117 0.61609 0.33376 0.14488 -0.039021 -1.1849 -0.45951 0.15631 -0.50818 1.2357 0.30965 -1.958 -1.1872 1.2027 2.1138 0.083629 0.54319 0.78883 0.35416 0.87736 0.54007 -0.10454 0.075371 -0.45727 -0.27466 0.11838 -0.49412 -0.61325 0.071519 -0.57665 0.21371 0.62137 1.4404 -0.34033 -0.89958 -0.69605 0.74058 0.52105 -0.19224 -0.20366 -0.22409 -0.3708 -0.34663 -0.86018 -0.89182 -0.43871 0.19424 0.17073 0.43663 -0.11295 -0.51156 0.34186 -0.10274 0.39684 1.734 -0.70787
site -0.38737 0.10339 -0.18915 -0.17456 0.038694 -0.31573 -0.02716 0.34326 0.68442 0.28543 0.64539 0.036279 0.62684 -0.83003 0.024053 -0.1217 1.3885 -0.36307 -0.9142 0.55494 0.044721 0.063538 -0.15948 0.32619 -0.18922 -0.89456 -0.25428 0.70414 -0.41222 0.14209 -0.16792 0.29732 0.44279 0.86818 0.40746 -0.02066 -0.63176 -0.36883 -0.19597 -0.28232 -0.087699 0.16968 -0.031285 -0.34788 0.20168 0.046605 -0.24914 0.17446 0.37783 -0.12707 1.0437 -0.11618 0.18222 0.56772 -0.80567 -2.5641 -0.96823 -0.67017 2.2191 0.03821 -0.52453 0.99322 0.96888 -0.026489 1.0654 0.00074382 0.45037 -0.27379 0.26106 -0.14039 -0.089821 0.094607 0.32831 -0.40562 -0.13895 -0.43879 1.0335 0.28702 -1.1198 0.31228 0.2044 -0.0046654 -0.21887 0.0045762 -0.47632 0.10409 0.45766 -0.29964 0.22534 0.52315 0.21855 -0.15501 0.57719 0.54894 -0.27605 -0.042198 -0.12563 -0.27962 1.0025 0.60678
radio -0.41181 -1.0062 -0.23506 -0.41677 0.44944 0.34995 0.68591 0.12677 0.065639 0.11684 0.13423 -0.32929 -0.49549 0.34654 0.20587 -0.82544 0.36968 -0.90198 0.48267 0.46687 -0.18585 0.34953 0.038731 -1.0605 0.46854 -0.66743 1.2396 0.67327 0.95114 0.76928 -0.15748 0.93858 -0.23141 1.8657 0.24634 0.2485 -0.39066 -0.10546 0.13284 -0.4625 -0.22731 0.41178 -1.0453 0.66335 -0.21415 -0.73428 -0.019386 -0.77807 0.15005 -0.53759 -0.40473 0.91388 0.48826 0.48059 0.2906 -2.2915 -0.59897 0.31194 1.6728 1.1356 0.71549 0.014958 -0.61431 -0.62149 0.77526 0.013787 0.13705 0.23604 0.28908 0.71328 -0.063686 -0.44938 0.52416 -0.3935 0.20024 0.067136 1.1721 0.55346 -1.0113 -0.075697 0.4972 -0.95137 0.41517 0.21644 -1.2131 0.13322 -0.019502 0.7265 0.12978 0.11833 0.70707 0.39725 -0.21256 0.42391 -1.2904 0.17135 -0.50927 -0.11002 1.0814 0.31467
hospital -0.045471 -0.049121 -0.72643 0.42287 -0.53932 0.91385 0.36844 0.9483 0.085474 0.17777 -0.14355 0.35714 0.92537 0.97555 0.32805 -0.59755 0.62418 -0.37446 -0.36468 -0.15431 0.10546 0.17395 -0.78507 0.25315 -0.78945 0.17445 0.28849 -1.1994 -0.028712 0.7916 0.29971 -0.20654 0.23514 0.98562 -0.64723 0.31157 -0.77685 0.73546 0.015988 0.062413 -0.078333 0.33316 0.047205 -0.9182 0.54378 0.69121 -0.14326 0.66798 0.11306 0.4142 0.1592 -0.74015 0.30893 0.43575 -0.19078 -2.5595 -0.45961 -0.79925 1.1481 0.60629 0.1839 0.31685 0.42346 0.31278 -0.4939 0.29877 -0.19279 -0.036384 -0.14907 0.80584 -0.82428 -0.41569 -0.018873 -0.2879 1.1484 0.23074 0.55474 0.52106 -0.88773 -0.53171 0.55851 0.54227 -0.0031904 0.2669 -1.7047 0.074105 0.34831 0.20868 -0.73471 0.33057 1.1484 -0.99198 0.70694 0.49329 -1.0645 1.4092 1.1577 -0.047243 0.66042 -0.54007
saw 0.16038 0.030281 -0.28715 -0.18265 -0.47084 -0.06407 -0.061913 0.28301 0.15458 -0.41037 0.49095 -0.17235 0.23249 -0.21068 0.22622 -0.15653 -0.26192 0.046212 -0.1192 0.18304 0.70213 -0.085788 0.075625 -0.073579 0.30918 -0.35116 -0.18383 -0.18571 0.36259 -0.42823 -0.11684 0.36069 -0.057576 0.22383 0.0028594 -0.32032 0.12244 0.17763 0.10491 -0.069481 -0.66263 -0.36003 0.37367 -0.1934 0.21858 0.23457 0.44993 -0.1433 0.2994 -0.96442 -0.14668 0.2475 -0.13986 1.2012 0.18474 -2.528 -0.55989 0.22973 0.72489 0.64458 -0.11219 0.8006 -0.47052 0.34465 0.53038 -0.046062 0.36854 0.16462 -0.09294 0.42797 0.10706 0.14713 -0.06471 -0.57722 -0.23971 0.34065 0.30964 0.10517 -0.58066 0.076581 0.5949 0.23875 -0.20855 -0.05278 -1.1653 -1.1809 -0.3534 -0.62103 -0.38433 0.05255 0.48298 -0.6071 -0.1805 0.11383 -0.79423 -0.52726 -0.13024 0.3081 0.049366 -0.15064
construction 0.5598 0.40884 -0.86392 0.44137 0.094008 -1.7604 -0.5955 0.7572 0.40529 0.86863 0.60972 -0.1335 0.4055 -0.12454 0.10876 -0.80537 0.35086 0.2439 -0.045162 -0.017878 0.10316 -0.10171 0.10278 0.090991 -0.12935 -1.0975 -0.55148 -0.019196 -0.65139 0.064765 -1.149 0.025024 0.19538 -0.17339 -0.69251 0.15298 0.23312 -0.42222 0.036828 0.2224 0.14568 -0.75671 0.24944 0.28292 0.65484 0.16572 -0.014491 0.12586 0.32243 -0.36193 -0.10731 -0.17895 0.42988 1.056 -0.24501 -1.7861 -0.36506 -0.36535 2.141 0.52964 -0.45166 -0.056213 0.3625 0.59734 0.80993 0.30995 0.35483 0.27497 0.24536 -0.48227 -0.40392 0.24145 -0.40641 0.020568 0.60079 -0.34052 0.60038 1.1494 -0.79042 0.070094 0.86652 0.12127 -0.30299 0.62512 -0.9431 0.5242 0.012493 -0.82527 0.13928 -0.3508 0.5856 -1.0204 -0.35452 0.28801 0.049886 -0.15708 -0.039465 -0.30191 1.1132 -0.28727
aircraft -0.75068 0.32913 0.031241 0.57064 -0.37469 -1.0634 0.76923 -0.41845 -0.35906 0.8075 1.0689 -0.8981 0.61308 0.23257 -0.053158 -1.188 0.40813 0.4509 0.56694 0.18971 0.60499 -0.46727 0.43205 -0.64668 0.55169 -0.24941 -0.71557 0.59479 -0.072287 -0.0083502 -0.46712 0.38149 -0.67214 0.15017 0.45906 0.84152 1.161 -0.20258 0.45916 0.67642 -0.48139 -0.37672 0.10056 0.78212 0.93747 0.21828 0.31398 -0.2366 -0.25032 -0.35674 0.047259 1.1123 -0.28031 1.2197 0.7633 -0.87313 0.084615 0.13935 2.5794 0.49056 0.35126 0.91263 0.31829 1.2081 -0.42488 0.066665 -0.657 -0.11055 -0.76495 0.84925 -0.43194 -1.5505 -0.0832 -0.30108 0.81387 -0.02638 0.28665 0.70617 -1.3116 0.51475 0.33542 -0.31254 0.018876 0.5439 -0.85285 -0.34816 0.95368 -0.7165 -0.29994 0.23561 -0.49212 -0.13382 0.46441 -0.13664 -0.43676 0.87997 -0.91403 -0.0037035 0.57089 -0.95073
plant -0.26587 0.76435 0.38179 -0.17323 0.013872 -1.237 0.36181 0.80811 0.094433 0.63863 -0.52189 0.14387 0.41282 0.13564 -0.48617 -0.20985 0.82291 0.25933 0.34834 0.24553 -0.13497 -0.12786 0.17731 0.69626 0.17722 0.17209 -0.040392 0.24483 0.042582 0.90519 -1.1165 0.46325 0.57555 -0.21269 -0.46593 0.49176 0.38885 -1.096 0.23474 -0.060113 0.25634 -1.2045 -0.28458 -0.59228 0.58706 0.47478 0.40608 0.16202 -0.43319 -0.18207 0.16367 -0.78588 -0.22281 0.78211 -0.27724 -0.75947 -1.2059 -0.5484 1.7789 -0.21905 0.86618 0.72736 0.13096 0.3253 1.421 0.060767 0.47491 -0.22603 0.048039 -0.25337 -0.1242 0.23913 -0.75115 -0.43663 0.51712 0.26971 1.0175 -0.49526 -0.88226 1.4675 0.53784 -0.34357 -1.2434 0.64174 -0.85184 0.59572 1.2472 -0.21262 -0.024009 0.59812 0.51751 -0.92531 0.017226 0.55508 -0.64655 0.56445 -0.49858 -0.6984 1.6488 -0.2431
bomb -0.51737 0.67008 -0.029651 -0.7386 0.14512 0.2893 0.31469 -0.025834 0.68313 2.1249 0.82737 0.051467 0.27282 1.2407 0.057461 0.90143 -0.069999 0.036999 -0.95994 0.051862 0.8849 -0.72432 0.29531 -0.83296 -0.018305 0.18601 -0.38575 0.75082 -0.18182 0.74373 -0.32542 -0.30949 0.055913 0.49645 0.14176 -0.42837 0.37072 -0.46903 0.7006 0.56325 -0.12873 0.05763 1.1156 -0.37415 0.66822 0.078093 0.40486 0.21578 -0.8398 -0.54327 -0.17044 0.50108 -0.18644 1.1879 -0.74442 -1.9035 -1.1216 0.49935 1.7585 0.096104 0.096139 1.5203 0.54279 0.35675 -0.055548 -0.15721 -0.38882 -0.15273 -0.35632 0.21487 -0.53805 -0.65829 0.26204 -0.26519 -0.26225 0.43873 1.4172 -0.42517 -1.3216 0.52509 0.78635 0.061809 -0.64796 -0.45048 -0.46517 -0.36998 0.66681 0.26963 -0.73925 0.11174 0.4792 0.51396 0.035428 0.19469 -0.4763 0.56731 0.70208 -0.096205 0.40993 -0.33929
hotel 0.43044 -0.71716 0.13989 0.59311 -0.16727 0.56128 0.26267 1.0409 0.16958 0.13956 0.84838 0.044141 -0.11395 0.41505 -0.3358 -0.18848 0.14697 -0.26797 -0.67836 -0.22267 0.4785 0.044884 -0.45976 -0.9213 -0.13276 -0.59018 -0.11978 -0.65691 -0.66913 -0.68945 0.15286 0.24037 0.47138 0.70435 0.34503 0.87025 0.15523 0.36412 0.44747 -0.76258 0.35414 -0.37684 0.41867 0.018389 1.354 0.7044 -0.72882 0.42007 0.71135 -0.054889 -0.57144 -0.43106 0.23052 0.44468 -0.28876 -2.6536 -0.33392 0.01417 1.4267 0.029696 -1.0524 0.73273 0.21223 -0.39279 -0.56856 -0.14502 0.52521 -0.031538 -0.018904 -0.030501 -0.79797 -0.4854 -0.045458 -0.51708 -0.067988 -0.30581 0.91789 -0.16784 -0.77955 0.2369 0.50186 -0.53749 0.525 0.023292 0.15066 -0.35357 -0.30374 -0.56657 -0.40158 -0.61105 0.53675 -0.59946 0.74521 -0.48801 -0.85378 0.88025 0.054334 0.082734 1.2884 -0.019587
phone 0.031764 -0.60768 0.52233 -0.011533 0.36009 0.3646 -0.0049728 -0.00033769 0.66011 -0.12602 0.23832 0.056113 -0.11328 0.35199 0.2407 -0.29588 -0.31811 0.0079509 0.32996 -0.10383 -0.4023 -0.0037351 0.47088 0.22141 0.33043 -0.45048 0.35376 0.55943 0.23509 0.05019 0.57384 0.91137 0.8936 0.13 0.67807 0.41787 -0.69812 -0.60581 1.1147 -0.0043455 0.46439 -0.38663 0.092078 -0.35278 -0.92302 0.037423 -0.49481 -0.20403 0.80609 -0.67063 0.19324 0.69329 0.81743 0.37762 0.26951 -1.7669 -0.70825 0.27024 1.9455 0.72376 0.17558 -0.17475 0.17004 -0.67982 -0.23057 0.085733 0.78184 0.3441 0.8369 0.27714 -0.41911 -0.013996 0.36299 -1.243 0.40935 0.82805 0.68355 -0.20146 -0.9285 -0.071892 1.4195 -1.0319 -0.11143 -0.24394 -2.1674 -0.27823 0.48543 -0.11831 -0.10966 -0.20811 0.44119 0.93765 0.67985 -0.52194 -0.4171 0.27298 0.037404 0.10726 0.80893 0.024408
plane -0.17734 0.087777 0.98841 0.35233 -0.26526 -0.063809 0.56626 0.5134 0.19312 0.42294 0.72456 0.36008 0.79759 0.60293 -0.13241 -0.51952 -0.11703 0.40415 0.60104 -0.13692 0.35928 0.14545 0.30955 -0.577 0.53611 -0.068949 -0.63115 0.56656 0.52825 -0.32035 -0.39062 0.22046 -0.49169 0.82654 -0.03174 0.47229 0.83108 0.50744 1.0723 0.58748 -1.3401 -0.53337 0.4127 0.16365 0.21366 0.64945 -0.11447 0.21287 -0.12928 0.099559 0.22982 0.84685 0.18374 1.5696 0.3509 -1.5499 -0.42958 0.74726 2.7579 0.5511 -0.10046 1.0071 0.38431 -0.038176 -0.46169 -0.045803 -0.52773 0.14521 -1.0011 0.70828 -1.0246 -1.2559 0.3094 -0.25474 0.83718 0.086453 0.65181 0.17889 -0.92974 0.58163 -0.33763 0.10116 -0.21006 -0.49969 -0.52854 -0.84119 0.8655 -0.22472 -0.77615 -0.30406 0.10961 0.086479 0.26616 -0.075754 -0.30605 0.44104 -0.11136 -0.17363 0.029951 -1.223
ship -0.2249 -0.11941 0.15471 -0.22297 -0.36309 -0.88817 0.45003 0.035466 0.067024 0.49851 0.66562 0.6606 0.50062 0.23956 -0.12973 -1.2 0.67643 -0.048885 -0.20526 -0.028385 0.89669 -0.41295 0.029302 -0.91545 0.39525 0.15798 -1.7402 0.060506 0.53652 -0.084067 -0.48895 0.18427 -0.21628 0.02351 0.35186 -0.099016 0.12256 -0.25232 0.56581 -0.43601 -0.67836 -0.56732 0.020607 0.038937 1.4693 0.53705 -0.57379 -0.038212 0.45976 0.82501 0.73131 1.0553 0.24808 1.1158 -0.048821 -1.6372 -0.69059 -0.69822 1.9533 0.4521 -0.42491 0.5516 -0.27821 0.445 -0.011544 0.55967 -0.64076 0.4514 -0.00087626 0.053854 -0.2096 -0.27616 0.5549 0.19193 0.42856 0.65215 0.225 0.20816 -0.69782 0.094105 0.29726 -0.25539 -0.30526 1.2222 -0.54553 -0.97585 0.70789 -0.83105 -0.25897 -0.56321 -0.2481 -0.064943 0.83752 -0.22346 0.1939 -0.018123 -0.62268 -0.24275 0.47207 -0.43393
equipment -0.27827 0.40384 0.25866 -0.05549 -0.22408 -1.4725 0.22905 0.52888 0.28724 0.6866 0.93304 -1.0019 0.32607 0.085116 0.057049 -0.60801 0.61786 0.30337 -0.14529 -0.1559 -0.53247 -0.11213 0.89288 0.026783 -0.18563 -0.354 -0.32964 0.14686 -0.41145 0.1293 -0.022865 -0.1737 -1.1039 0.066065 0.23308 0.25638 -0.049493 -0.086923 0.18776 -0.37556 0.52128 -0.33702 -0.16745 -0.67293 -0.30698 0.0031698 -0.33666 0.20292 0.4189 -1.0519 0.28816 1.1529 -0.18914 0.97874 0.54228 -1.2878 -0.46123 -0.17079 2.2846 0.46294 0.44689 0.20239 0.30426 1.0872 -0.41661 0.18804 0.32068 -0.35758 0.40979 0.29189 -0.095118 -0.42888 0.23843 0.42794 0.69509 0.52946 0.61609 0.95755 -0.46142 0.59422 1.4733 -0.10806 -0.32206 0.56481 -1.9626 0.59369 0.9754 -0.10345 -0.4308 0.1076 0.038907 -0.22155 0.63249 0.014557 -0.36465 -0.23114 -0.23548 -0.39996 1.3004 0.1067
housing 0.49101 0.85612 -0.257 0.11311 -0.41637 -0.53334 -1.0614 0.024146 0.4939 0.44952 0.61923 -0.67805 -0.11422 0.038069 0.58736 -0.045616 -0.6436 0.12151 -0.41449 0.18675 0.14878 0.06454 0.165 -0.32918 -0.8013 -1.4777 0.03449 -0.89652 -1.9681 0.3921 0.032481 0.2457 -0.019966 0.91162 -0.7224 0.61332 0.27571 0.22158 0.1947 0.28442 0.32956 -0.98694 -0.13404 0.099558 1.2114 -0.41098 0.11491 0.38296 -0.225 -0.60689 -0.56805 -0.69166 0.15089 0.54022 0.29571 -1.7511 0.44395 -0.65072 1.6601 0.20445 -0.43703 -0.18955 0.4796 -0.074061 0.93031 0.57175 0.68845 -0.67406 0.60635 -0.66265 -0.13449 -0.1162 -1.0072 -0.52422 0.56453 0.28849 -0.25622 1.1959 -0.69994 -0.49956 0.47273 0.73808 -0.27403 0.31732 -0.63483 0.057122 -0.13099 -0.94081 -0.028104 -0.87689 0.71777 -0.30396 -0.069269 -0.45659 -0.31719 0.4423 0.85089 0.4888 0.6972 -0.77115
van 0.13808 -1.2345 -0.33972 -0.98497 0.42565 -0.16314 0.48537 0.22893 0.76176 -0.95578 -0.22572 0.18694 -0.91135 0.41332 0.86175 -0.37201 0.56561 -0.045161 -0.72338 -0.0088355 1.0792 0.21199 -0.37332 -0.31754 0.32918 -0.66485 -0.53027 -0.81093 0.30535 0.21378 -1.0345 0.047403 -0.41239 0.021125 0.38755 -0.69308 1.2656 0.88991 -0.11012 -0.097904 0.41808 -1.0958 0.62007 0.44009 -0.47924 0.40412 -0.063025 -0.59974 -0.31486 -0.042712 -0.0025355 -0.26731 -1.1976 0.041627 -0.45648 -1.9383 -0.83783 0.64666 1.0459 0.13673 1.0901 0.84616 0.12208 0.48565 0.10561 -0.070881 0.066479 0.98512 -0.94299 0.358 0.011137 0.22428 0.35729 -0.88953 0.010019 0.08542 0.34565 0.24586 -0.13919 0.060864 0.85739 0.44338 -0.068121 -1.415 -0.90638 -0.26263 -1.2969 -0.95179 -0.55085 0.38427 0.58804 -0.085 1.2903 0.57057 0.26987 0.42586 -0.89872 -0.15167 -0.062145 -1.29
train 0.14204 0.37898 -0.041547 -0.25912 0.12683 -0.10246 -0.036349 1.1204 0.16907 0.2932 0.44642 0.26885 0.53806 0.86807 0.016139 -0.42866 0.3902 -0.059054 -0.58384 0.12998 0.91962 -0.45178 -0.16338 -1.0943 -0.14594 -0.34428 -1.0134 0.32995 0.93025 -0.04038 -0.92211 0.48415 -0.21326 0.073828 -0.21047 0.06121 0.051086 -0.16181 0.81493 0.49737 -0.32716 -0.58716 0.1187 -0.42928 0.58458 0.65802 0.38646 -0.5418 0.44364 0.39251 -0.24556 0.29944 -0.29257 1.0205 0.058217 -1.7467 -0.57659 0.91879 2.4218 -0.071484 0.059568 0.62672 0.32679 0.082016 -0.13512 0.50101 -0.67173 0.094938 0.23987 0.27638 -0.61817 -1.0295 -0.026908 -0.065102 0.71342 0.23447 1.6109 0.20404 -0.091796 -0.9102 0.21829 0.26718 -0.41201 -0.049867 -1.0911 0.030316 -0.51127 -0.19293 -1.1123 0.45059 -0.030545 0.14088 -0.07296 0.11636 -0.49315 -0.18348 0.16653 0.24438 0.75249 -0.24142
bus -0.20323 0.041369 -0.36598 -0.37546 0.59331 0.2903 0.046298 1.4742 0.52855 0.24499 -0.015176 0.16253 0.71683 0.75993 0.58578 -0.2997 0.18856 0.095596 -0.43131 0.66131 0.86501 -0.23049 0.12347 -0.38235 0.016061 -0.44694 -0.47025 0.42341 0.31893 0.22761 -0.29406 1.159 -0.19973 0.23707 0.022804 0.16174 -0.00019957 0.042501 1.1165 0.42813 -0.0031305 -0.63429 0.6491 -0.017384 0.49665 0.87573 0.532 0.2579 0.14855 0.43443 -0.3572 0.39818 -0.28177 1.0724 0.22488 -1.6482 -0.57221 0.9223 2.2845 0.077406 -0.13894 -0.020511 0.37963 0.24238 -0.30547 0.59171 -0.25022 -0.3563 -0.27123 0.33366 -0.99405 -0.84846 0.67778 -0.6701 0.28208 0.268 1.5457 0.30612 -0.5422 -0.88118 0.12879 0.011205 -0.08595 0.10763 -0.70267 -0.19996 -0.69035 -0.69173 -0.7314 0.47101 0.77784 0.35304 -0.31572 -0.15892 -0.80651 0.19087 0.492 0.73771 0.95693 -0.16612
produce -0.36331 0.37887 -0.26294 0.077637 0.14661 -0.82105 0.38839 0.38699 0.011603 0.22379 -0.23895 -0.33575 0.19397 0.18208 0.056372 -0.23177 0.26636 0.56484 0.63836 0.23001 0.35029 -0.78069 0.3315 -0.19761 -0.47471 -0.050195 0.065035 -0.24245 0.24212 0.086568 -0.16685 0.51527 -0.45067 -0.39433 0.39833 0.28866 0.61017 -0.65272 -0.67198 0.10511 0.15274 -0.067644 -1.0093 -0.92195 0.29851 -0.36029 0.12801 -0.50232 -0.60604 -0.80704 -0.065399 -0.25899 -0.0092758 0.50599 0.39722 -1.6327 -0.67515 0.22802 1.2091 -0.42204 0.33357 1.106 -0.2195 -0.20304 1.0423 -0.35388 0.55348 0.013141 0.30327 -0.99107 0.49016 0.090471 0.26348 -0.065629 0.45246 0.50732 -0.22767 -0.59593 -0.65764 0.42431 0.90952 0.29077 -1.1311 0.32259 -0.98807 0.17626 1.1488 0.11766 -0.1056 0.24413 0.11991 -0.16356 -0.48624 -0.82253 -0.66697 -0.35918 -0.50464 -0.61651 1.3769 -0.14216
table -0.61454 0.89693 0.56771 0.39102 -0.22437 0.49035 0.10868 0.27411 -0.23833 -0.52153 0.73551 -0.32654 0.51304 0.32415 -0.46709 0.68051 -0.25497 -0.040484 -0.54418 -1.0548 -0.46692 0.23557 0.31234 -0.34537 0.14793 -0.53745 -0.43215 -0.48724 -0.51019 -0.9051 -0.17919 -0.018376 0.09719 -0.31623 0.7512 0.92236 -0.49965 0.14036 -0.28296 -0.97443 -0.0094408 -0.62944 0.14711 -0.94376 0.0075222 0.18565 -0.99172 0.072789 -0.18474 -0.52901 0.38995 -0.45677 -0.21932 1.3723 -0.29636 -2.2342 -0.36667 0.04987 0.63421 0.53275 -0.53955 0.31398 -0.44698 -0.38389 0.066668 -0.02168 0.20558 0.59456 -0.24892 -0.52795 -0.3761 0.077104 0.75222 -0.2647 -0.0587 0.67541 -0.16559 -0.49278 -0.26327 -0.21215 0.24317 0.17006 -0.2926 -0.5009 -0.56638 -0.40377 -0.48452 -0.32539 0.75293 0.0049585 -0.32115 0.28899 -0.042392 0.63863 -0.20332 -0.46785 -0.15661 0.2179 1.4143 0.40034
transport -0.70839 0.08382 -0.31926 0.047779 0.34998 -1.4395 -0.29192 0.55991 0.35945 -0.17861 -0.13335 -0.52864 -0.20745 0.54551 0.617 -1.0107 0.66586 -0.27613 -0.24481 0.045503 0.39062 -0.38331 0.49284 -0.74531 -0.33712 -0.29404 -0.35076 0.40956 0.21819 0.44559 -1.0058 0.28822 -0.90958 -0.5798 -0.0088358 0.29309 0.49122 0.59886 -0.23015 0.53898 0.25601 -0.89154 0.15358 -0.26572 1.1067 0.73276 -0.29765 -0.0176 -0.26134 0.50584 0.38743 0.58222 0.097758 1.0864 0.06936 -0.77007 -0.1256 0.89395 2.4367 0.575 -0.16663 -0.47321 0.18921 0.10083 0.36906 0.57238 -0.36402 -0.22839 1.0249 -0.087643 -0.39381 -1.387 0.60164 -0.6949 0.57524 0.064869 0.46247 0.74915 -0.76238 0.075661 0.6152 0.40988 0.0069265 0.73318 -1.1145 -0.071326 0.36879 -0.39716 -0.64169 -0.081679 0.43437 -0.78422 -0.27366 -0.1048 0.088984 0.32662 0.14349 -0.11305 0.41328 -0.53306
vehicle -0.46422 -0.59064 0.48045 -0.046357 0.32931 -0.65188 0.34816 0.82188 0.74394 1.0088 0.28627 0.024098 0.44143 -0.42048 0.39932 -0.12425 0.53103 0.63474 0.077901 0.40038 1.1692 -0.72235 0.13835 -0.15709 0.40835 0.21649 -0.75877 0.11641 -0.1575 0.11466 0.069576 0.555 -0.52377 -0.033958 0.70552 -0.088888 0.32302 0.081896 0.61252 0.69871 0.21193 -0.52837 0.5854 0.54425 -0.022051 0.26847 -0.18704 0.3703 -0.54445 -0.92807 0.17609 0.32299 -0.49846 1.3504 0.80965 -1.341 -0.57742 0.50662 2.2913 0.35551 0.7186 0.53178 0.50264 1.3803 0.48244 -0.12444 -0.25305 -0.81986 0.091404 0.32932 -0.12861 -0.76704 0.36962 -0.549 0.2617 0.41174 1.0424 0.011743 -0.8037 -0.64584 0.42634 0.61982 -0.23203 -0.29994 -0.30252 -0.12669 0.17997 -0.75594 -0.69628 -0.42521 0.39223 0.058419 0.15714 -0.11127 -0.040711 0.44081 -0.13313 0.058205 1.3936 -0.72335
box -0.33403 0.18005 0.8114 -0.46322 0.36427 0.78688 -0.084426 -0.27162 0.037689 -0.43532 0.7261 -0.35211 -0.13165 0.58508 -0.048867 0.60863 0.70253 0.31006 0.4951 -0.46248 0.15154 0.2562 -0.32966 -0.70783 0.55303 0.26683 0.37308 0.27394 -0.45601 -0.58616 0.55427 0.30881 0.40158 0.65241 0.68973 0.32912 -0.4063 0.54271 0.15739 -0.76266 0.42812 -0.62214 -0.47006 -0.5568 0.50624 -0.37171 -0.54006 -0.54016 -0.09266 -0.11958 0.25731 0.14878 -0.16653 0.74969 0.093533 -2.3068 -0.62368 0.36773 1.697 0.16871 -0.36882 0.67339 -0.064156 0.59203 -0.22108 -0.52024 0.49613 0.24435 -0.41102 -0.18787 0.10653 0.61551 0.42703 -0.10655 0.11592 0.18472 0.15017 0.28916 -0.32485 0.60123 -0.074568 0.074928 -0.27777 -0.31423 -0.74315 -0.80767 0.63938 -0.61339 -0.70805 0.42506 -0.19877 0.73066 0.12392 0.19238 -0.44652 -0.51758 0.44118 -0.045481 0.97226 -0.6229
structure -0.1435 0.66057 -0.078808 0.47386 -0.24185 -0.16804 -0.43229 -0.025208 -0.11798 0.9082 0.57308 -0.36412 0.86332 0.14504 0.22793 0.17194 -0.030631 0.45678 0.33147 -0.45175 -0.54619 -0.43685 -0.2732 -0.36981 -0.0162 -1.1068 -0.039399 -0.2516 -0.62982 0.14325 0.17506 0.57841 0.11045 -0.77896 0.12927 -0.20789 0.2808 -0.065834 -0.17396 -0.56792 0.22379 -0.75104 0.045552 0.20894 0.22593 0.35256 0.058257 0.41181 -0.30847 -0.18483 0.098612 -0.29738 0.27672 1.29 0.064869 -2.3009 0.16897 -0.63996 1.7296 0.90617 -0.36869 0.29214 0.27032 0.34953 0.98083 -0.24947 -0.30178 0.26452 0.33496 -0.86322 0.45965 0.040014 0.46588 -0.088162 0.66556 -1.0267 0.29679 0.055409 -0.2969 0.31312 -0.42568 0.014019 -0.41214 -0.027096 -0.62222 0.49954 -0.0074007 -1.108 -0.39657 0.3009 0.071158 -0.7627 -0.43996 0.44536 0.58468 -0.54075 0.016704 -1.6433 0.66577 0.17256
bowl -0.80626 0.36656 0.46964 -1.1375 -0.57334 0.461 1.6727 0.22987 -0.76207 -0.2865 -0.096446 -0.82659 0.039337 -0.044555 -0.18449 -0.52295 0.67914 0.6383 -0.093224 -0.012827 -0.89646 -0.069643 -0.66285 -0.14712 0.43599 0.6106 -0.1115 -0.01043 0.094004 -0.14814 -0.039176 0.15557 0.43938 -0.0045835 -0.30416 -0.080434 -0.77213 1.1199 -1.2304 -0.65922 0.22984 -1.117 0.04942 -1.7377 0.26184 -0.12871 0.33718 0.066483 0.06667 -1.3225 -0.7225 -0.0081737 0.82296 0.55836 0.53209 -2.0047 0.016129 0.24307 1.2623 0.47167 -1.33 0.13086 0.13152 -0.21672 0.54223 -0.74255 0.4379 0.32652 -0.94629 0.62484 -0.014429 -0.13778 0.055488 0.86288 -0.67111 0.26415 -0.48792 0.078832 0.7808 0.5013 0.52079 -0.22804 -0.64727 0.54785 -0.23374 -0.69081 0.04388 -0.90164 0.95187 0.77147 0.021332 0.78812 -0.82594 -0.37384 -0.71901 -0.73053 0.0033784 0.91166 1.1292 0.71039
gun -0.28729 -0.095254 -0.36139 -0.61286 -0.27698 0.416 0.26372 -0.1069 0.40407 0.3159 0.13864 -0.16844 -0.36208 0.32007 0.28512 0.37059 0.052905 -0.072461 -1.0186 -0.4615 1.3767 -0.36303 -0.31225 -0.63349 0.36636 0.52482 -0.71736 -0.80763 -0.34027 0.12993 0.45372 0.31682 0.50632 0.89771 0.50934 -0.60228 0.0069813 -0.96375 1.1096 0.14375 0.11657 -0.63407 0.23169 -0.33639 -0.024442 -0.9194 -0.43393 -0.11097 -0.27829 -0.70443 -0.02531 0.37602 -0.60184 1.2622 0.87378 -1.143 -0.067676 -0.67708 1.7419 0.073854 0.51394 0.56644 0.031719 1.5852 0.2822 0.45748 0.63332 0.33781 -0.79455 0.78217 -0.031653 -0.62073 0.71888 0.46371 -0.38381 -0.1815 -0.092197 -0.58996 -1.2758 -0.47347 1.0701 -0.31577 0.4582 -0.48258 -0.93645 -0.33513 -0.4645 -0.76332 0.10732 0.05047 -0.08495 0.1007 0.16588 0.2407 0.0038131 0.031007 -0.34395 0.26926 1.1591 -0.37925
missile -0.56361 0.19212 0.7512 0.39789 -0.73836 -1.3991 0.87578 -0.49509 0.13865 1.9185 0.39343 -0.52365 -0.1598 0.11631 0.34751 -0.073369 0.39889 0.49022 -0.62946 -0.47036 0.49781 -0.51692 -0.274 0.20967 0.25888 0.87827 -1.1174 1.0214 -0.20373 0.76701 -0.84997 0.7607 0.0010781 0.16955 0.9764 0.069159 0.66008 -1.0557 -0.28867 0.42382 -0.76899 -0.14589 0.3149 0.52453 1.289 -0.72717 0.52379 0.12029 -0.60807 -0.51921 0.78745 1.0166 0.031287 0.87186 0.16466 -1.2278 0.53645 -0.22553 1.5776 0.40336 0.47939 1.2063 1.113 0.4911 -0.20737 0.6491 0.28887 0.62296 -0.9353 0.66445 0.90172 -0.59584 0.32561 -0.70397 -0.57195 -0.17769 0.55693 0.552 -1.2095 0.56901 1.1626 -0.18693 0.24205 -0.16972 -0.81786 0.44062 0.68937 0.4413 0.43669 0.199 -0.61564 0.67298 -0.0092333 -0.034476 -0.17866 0.8552 -0.080909 -0.15829 0.58625 -0.35361
fox 0.16917 -0.99783 0.24429 -0.79687 0.036447 -0.56127 0.17305 0.29287 -0.43291 -0.82274 -0.11437 -0.28808 0.20501 -0.4878 0.50534 -0.2117 0.48474 0.20959 0.26642 0.6839 -0.2629 0.14794 0.087969 -0.17349 0.61804 0.63733 0.41145 0.46401 -0.2165 0.5 0.65265 1.0608 0.19275 0.141 0.51356 0.72558 -0.044848 -0.35761 0.49862 0.73592 -0.38307 0.12159 -0.75345 0.80579 -0.48075 -0.40283 -0.49931 -0.60309 0.26126 -0.24109 -0.55885 -0.10622 0.11289 0.49708 0.015915 -2.452 -0.32529 0.20437 0.55361 0.60879 -0.083061 0.60856 0.13958 -0.71847 1.1409 0.023752 0.050995 0.29621 -0.16247 1.1456 0.16929 -0.0042113 -0.4026 -0.073144 0.096698 -0.15248 -0.69435 0.28032 -1.0238 0.58777 -0.34573 -0.60871 0.1842 -0.18736 -0.49948 -0.18095 -0.71161 0.69437 0.37298 -0.308 0.2455 -0.94515 0.20393 -0.14885 -1.1153 -0.52266 -0.27841 0.027184 0.39712 0.17933
fish -0.65654 0.56149 0.43801 -0.70816 -0.02848 -0.541 0.32885 0.19502 0.064846 -1.3596 -0.58534 0.4832 0.33913 0.35244 0.014004 0.20392 0.26975 -0.052985 -0.35107 0.78838 0.28599 0.41146 0.71163 -0.33233 0.76987 1.2209 -0.43528 -0.79026 -0.30152 0.54479 -0.6672 0.29536 -0.12011 -0.048952 0.45108 0.14186 -0.63951 0.14591 0.4785 -0.8323 -0.17478 -1.5759 -0.8885 -0.43423 1.0733 0.45304 -0.51571 -0.20244 -0.74595 -0.36699 0.22531 -0.16772 -0.12776 0.7057 -0.61219 -0.93637 -0.10686 -0.63908 1.1557 0.66294 -0.42806 0.60697 0.74073 0.28582 1.14 0.18724 -0.051093 -0.33439 0.72001 -0.44025 -0.036515 0.060187 1.0262 0.69332 -0.26809 0.21283 -1.3187 -0.30737 0.21162 1.0292 0.68704 -0.25537 -1.0149 0.3325 -0.43809 -0.72006 0.28441 -0.26171 -0.014646 0.33437 0.23288 -0.51822 0.36758 -0.52179 -0.74965 -0.32304 -1.3306 -0.61827 1.0156 -0.1102
defence -0.66636 -0.38635 0.24673 0.23257 -0.49631 -0.3801 -0.026877 -0.19782 -0.60216 0.68442 0.67098 -0.55668 -0.46171 0.85057 0.024549 -0.39545 0.15755 -0.23356 -0.56155 -0.35638 0.12955 -0.55983 0.28762 -0.27382 -0.12566 -0.46097 0.17526 0.092423 -0.21962 0.082026 -0.84943 0.15295 -0.60925 -0.93775 0.19175 0.049185 -0.55594 0.77909 -0.51709 0.0033678 0.11031 0.090619 0.70573 0.2205 1.0647 -0.55394 -0.1182 0.20594 -0.2189 -0.45052 0.94478 0.32802 0.11969 1.3493 0.14231 -1.2277 -0.086612 -0.28472 1.3008 0.60086 0.53161 -0.19089 -0.29075 0.026455 0.20786 -0.0085267 -0.26481 0.89523 -0.21491 0.44043 0.94323 -0.34276 0.56913 -1.4904 -0.16543 -0.21073 -0.40834 1.2188 -0.54197 0.71501 0.80766 0.60612 0.70128 0.36301 -1.1386 -0.67465 0.05716 1.005 0.65734 -0.231 0.70302 -0.54548 -0.36199 0.6746 0.28743 0.76179 -0.14405 -0.15035 0.39503 -0.18891
library 0.47795 0.60255 -0.085426 0.21932 1.2218 0.76096 -0.10822 0.45026 0.29014 -0.22394 0.48283 -0.81416 -0.36039 0.28329 -0.80833 0.50357 1.2295 0.74779 -0.21914 -0.25901 -1.2065 0.042637 0.34068 -0.61351 0.020103 -0.94918 0.034701 -0.40989 -0.3749 0.33876 0.11102 0.5639 -0.27664 0.8872 -0.1007 0.5483 -0.3427 0.3999 -0.13825 -0.3512 0.19135 -0.38844 -0.48682 -0.21737 0.69899 -0.051355 0.38743 -0.054705 0.7727 0.45559 0.67385 -0.37567 0.30755 -0.34431 -0.49369 -2.0152 -0.16584 -1.1111 1.384 0.11549 0.13958 0.63839 0.04474 0.31532 0.70638 -0.11313 0.2961 0.77748 1.0154 0.38682 0.28646 0.74463 0.76612 -0.46771 -0.36878 0.10569 0.1938 0.61862 -0.93132 -0.14285 -0.36864 0.10975 0.076096 -0.37123 -0.69661 0.83273 0.17633 -0.93606 -0.017551 0.21348 0.68142 -0.15668 0.94089 0.57933 -0.80463 -0.22462 0.74541 -0.73808 0.51963 0.54349
boat -0.0083229 0.3696 -0.24436 -0.89288 -0.23607 -0.41659 0.48309 0.91159 0.14498 -0.096963 0.55061 1.0376 0.32243 -0.01381 0.0098052 -0.66346 0.27949 -0.74099 -0.29602 0.64596 1.1305 0.54629 0.49664 -0.87378 0.42399 0.35015 -1.9151 0.010363 0.35684 -0.32398 -0.66927 0.43628 -0.20924 0.28862 0.63752 -0.18789 -0.079442 0.30494 0.8829 -0.3143 -1.2595 -0.72301 0.077278 -0.045894 1.0251 0.25472 -0.2566 0.18428 0.34037 0.53185 -0.070906 0.57464 0.5131 1.1666 0.1848 -1.4466 -0.41846 0.011812 2.1553 0.52012 -0.9029 0.43183 0.60584 0.72845 -0.32243 0.73929 -0.68845 0.25407 -0.20834 -0.059242 -0.45655 -0.27773 0.7168 0.075051 0.41672 0.77879 0.38134 0.19478 -0.41434 0.073975 -0.043165 -0.08107 0.15718 0.40069 -0.23959 -0.81604 -0.027071 -0.82597 -0.49703 -0.38626 -0.20425 0.23017 0.664 -0.43292 0.576 -0.16406 -0.94914 0.21461 0.9313 -0.41208
restaurant 0.27881 -0.42426 -0.26469 0.33495 -0.12618 0.60563 0.46863 0.33391 0.37386 0.53254 -0.19121 -0.27538 0.4779 0.2245 -0.51957 0.2507 0.1993 -0.56024 -0.92144 0.60024 0.37618 0.59618 -0.29091 -1.2207 0.3497 -0.046055 -0.38039 -0.54069 -0.68021 -0.54123 -0.12357 0.94998 0.67139 0.28909 0.47285 1.1195 0.17494 -0.046657 0.49511 -1.1535 0.99912 -0.39181 -0.023815 -0.22847 1.1336 0.51475 -1.1272 0.079167 0.47692 -0.071966 -0.2862 -0.61459 -0.44946 0.52907 -1.1258 -2.0211 -0.55071 0.29477 1.2553 0.14303 -0.53709 0.64964 0.90343 -0.20444 0.09181 -0.41999 0.43735 -0.34295 -0.19443 0.22586 -0.89616 0.49632 0.22231 0.10024 -0.46217 0.059731 0.25368 -0.44651 -0.24093 0.17445 0.079336 -0.263 -0.28529 0.094659 -0.05541 -0.80388 -0.42903 -0.38608 -0.38869 -0.33857 1.0391 0.081424 0.49489 -0.32983 -0.82815 0.50155 0.062259 -0.036031 1.3332 0.66718
truck -0.13959 0.053049 0.098775 -0.75656 0.18649 -0.5453 0.51948 1.031 0.53502 0.48639 0.27249 0.15508 0.40621 0.18081 -0.025307 0.26865 0.38571 -0.21049 -0.28851 0.48076 1.0103 0.11727 0.4438 -0.044604 0.31954 0.105 -1.046 -0.045288 0.26557 0.2942 0.044758 0.21819 -0.31754 -0.24927 0.0386 -0.018294 0.48484 0.2406 1.4252 0.60919 0.62857 -0.9181 0.67407 -0.049386 0.32595 0.5808 -0.064496 0.097091 -0.29634 -0.49801 -0.5079 0.15151 -0.28035 1.4427 0.18603 -0.93646 -1.2371 0.76921 2.1535 0.24301 0.43864 0.16485 0.61097 0.34103 0.31127 -0.021241 0.18143 -0.24922 -0.50407 0.36803 -0.40437 -0.78135 0.3406 -0.33441 0.39221 1.2164 1.4956 -0.067117 -0.47906 -0.11335 0.38635 0.46424 -0.66364 0.017471 -0.072569 -0.87245 0.11094 -1.2457 -1.1849 -0.020146 0.42812 0.27275 -0.11434 -0.14035 -0.26379 -0.21542 -0.0064448 0.77447 1.5429 -0.20753
temple -0.27768 -0.086684 -0.87103 0.28881 -0.24075 0.46912 -0.7571 0.23667 0.3255 0.15085 0.035915 0.070129 1.0803 0.99066 -0.74123 -0.85028 0.2623 0.57503 -1.2554 0.93777 0.24316 -0.78181 -0.79732 0.38958 0.44197 -0.34362 0.23922 -0.07189 -0.2468 -0.35829 -0.31748 -0.43312 0.91628 0.84305 -0.33735 -0.46479 -0.60227 0.51464 0.39283 -0.5057 -0.52594 0.25841 0.84841 -0.39299 0.85153 -0.60593 0.090608 0.6804 0.29114 0.077398 0.097197 -0.61429 1.4142 -0.025638 -1.113 -2.1727 -0.88819 -0.15545 1.1397 -0.032348 -0.85821 0.46769 1.0279 0.83782 -0.21487 0.57012 0.49174 -0.034852 0.22968 -0.12634 0.28398 0.35837 0.23966 0.33637 -0.68502 -0.71111 -0.21206 0.0010408 -0.03928 0.32363 -0.3755 0.4926 -0.37483 -0.68311 0.073642 1.1266 -0.27551 -0.85095 0.85401 0.46646 0.30733 -1.0117 0.38189 0.62368 -0.27327 -0.89544 -0.57036 -0.76937 0.84856 0.28921
bird 0.18545 0.63305 0.49348 -0.36247 -0.44404 0.25026 0.088559 -0.56528 -0.10396 -1.3329 -0.83198 0.10891 1.0303 -0.14006 0.36246 0.78124 0.42329 -0.20897 0.029821 0.17097 -0.10194 0.67761 0.17456 -0.46756 0.61461 0.96302 0.37697 0.30771 -0.93052 0.52374 -0.63408 0.08712 0.91014 0.89292 0.37252 0.064684 -0.39145 -0.067991 -0.13038 -0.25846 -0.61804 0.09388 -0.071153 -0.76305 1.0208 1.0106 -0.37774 -0.59007 -0.17798 -0.89635 0.47559 -0.037909 -0.2249 0.49432 -0.41859 -1.771 0.0063903 0.014795 0.86127 0.46228 -0.00069967 1.2191 0.81479 0.19161 0.60752 0.84148 -0.63338 -0.19063 0.32437 0.025144 -0.26801 -0.4523 -0.37399 0.30559 0.5234 -0.23319 -0.86997 -0.17145 -0.83059 0.39182 0.82389 -0.17259 0.019109 -0.44266 -0.34678 -0.25256 0.41909 -0.22928 -0.050094 1.0101 0.40694 -0.50756 0.55023 -0.2184 -0.61322 0.41327 -1.2263 -0.90674 -0.027379 -1.1512
arm -0.0018912 -0.04949 -0.14275 -0.77941 -0.15464 -0.059113 -0.47672 0.17946 -0.57886 0.13595 0.43951 -0.011171 1.1506 0.34466 0.066515 0.13196 -0.22608 -0.09553 0.41481 -0.41916 0.18575 0.1889 -0.40242 -0.19918 0.43847 1.0299 -0.86898 0.034047 0.26316 0.29401 0.40607 0.62485 -0.16226 -0.23079 -0.03226 -0.69912 -0.20265 0.29696 0.26127 -0.06691 -0.011068 -0.13279 0.41597 -0.30157 -0.90503 -0.12346 0.27488 0.39675 -0.30283 0.15485 -0.22289 1.0702 0.064862 0.61862 0.32738 -2.1084 -0.9334 -0.21132 1.7972 1.0821 1.1589 0.13249 0.013671 1.0728 -0.66423 0.05763 -0.06449 0.36797 0.25366 0.49785 0.1532 0.11916 -0.1231 -0.50362 0.63074 -0.47645 -0.86225 0.71023 -0.11428 -0.13478 0.3054 0.40824 -0.043765 0.27163 -1.2168 -0.52989 0.17755 0.49082 0.27473 0.039891 -0.20891 -0.32472 0.19644 -0.14214 0.40207 0.45936 0.4482 -0.13855 0.78392 0.015621
tree -0.95006 1.1876 -0.15589 -0.074026 0.5079 0.31601 -0.54892 0.067332 0.15188 -0.5513 0.23907 0.51758 0.74652 0.25078 0.16725 0.62283 0.57831 0.51285 0.40373 0.28724 -0.86457 0.30834 0.51061 0.23464 0.79364 1.0949 -0.38242 -0.61534 -0.31768 0.057612 -0.062234 0.23371 1.3646 0.041268 0.16139 0.51282 -0.59209 0.19985 0.84048 -0.29435 -0.60302 -0.4019 0.24935 0.11682 0.32013 0.47542 0.065839 0.82453 -0.44137 -0.25109 -0.66219 -0.86754 0.1761 1.3144 -0.11248 -1.2104 -0.34885 0.64391 1.6558 0.28513 0.36003 1.2313 -0.15331 -0.039409 0.33274 -0.39041 -0.36684 -0.51819 0.50564 -0.78323 -0.94479 0.59769 0.0112 -1.1256 0.18023 -0.34545 0.71308 -0.43039 -0.45027 0.84662 0.21961 -0.31083 -0.59641 -0.5015 -0.10131 -0.252 0.2906 -0.49658 0.42987 1.1259 -0.19293 -0.92172 0.056403 0.62867 -0.92658 -0.81198 -0.29264 -1.1018 0.92132 -0.35489
animal 0.55746 0.63049 0.12027 -0.53576 0.14654 0.24643 0.11117 -0.085524 -0.13056 -0.74412 -0.98972 -0.10143 0.89751 -0.066392 0.37503 1.2191 0.58312 0.45883 -0.079865 0.26122 0.54656 0.054011 0.22886 -0.59968 0.22806 1.1621 -0.23035 -0.31978 -0.699 0.68517 -0.37234 -0.010055 -0.35949 0.36877 0.093878 0.048444 -0.63929 0.25754 -0.32328 -0.35404 -0.081197 -0.3069 -0.53772 -0.52698 0.24271 0.18891 -0.69191 0.15179 -0.82934 -0.32234 0.61774 -0.20994 -0.03807 0.86424 -0.17749 -0.59381 -0.2735 -0.2803 1.3397 0.16629 0.68787 0.77989 0.31441 0.25663 1.5333 0.56365 -0.13868 -0.21779 0.92714 -0.16283 -0.18159 -0.21643 0.31648 0.18079 0.16908 -0.21123 -0.29204 -0.42127 -1.0866 0.61138 -0.12801 0.64109 -0.28564 0.23721 -1.5138 0.044727 0.21287 0.42731 -0.14853 0.41954 1.0376 -1.1158 0.62314 0.30602 -0.26554 -0.24754 -1.0016 -0.6734 1.2951 -0.69336
horse 0.51793 0.39619 0.24721 -0.58441 -0.15856 -0.11021 0.2165 0.42365 -0.30057 -0.62318 -0.39794 0.83691 0.90121 -0.59203 -0.44309 0.51618 0.48423 -0.11309 0.20911 -0.019158 0.75972 -0.030758 -0.089237 -1.2704 0.62395 0.56869 -1.0596 -0.36014 0.28037 0.051358 -0.45614 -0.32677 0.39745 -0.36342 0.90313 0.62632 -1.2037 0.59268 0.27586 0.3832 0.4349 0.090867 -0.057095 -1.3353 -0.10759 -0.098484 -0.44971 -0.50626 0.49266 -1.0391 -0.60598 0.051916 0.50066 0.69696 0.20687 -1.4953 -0.44241 0.69164 1.0389 0.18459 0.43204 0.95015 0.52371 1.2069 1.1042 0.59043 -0.53926 -0.19029 0.40553 0.52851 -0.32235 0.037868 0.096931 0.34555 0.31035 0.14606 0.24622 0.17258 -0.51114 -0.40038 0.33752 0.22339 -0.054845 0.4452 -0.1311 -0.28827 -0.99069 -0.24142 0.37346 -0.20881 -0.80666 -1.0341 0.26464 0.40334 -0.53687 -0.5935 -0.51444 -0.13857 0.93482 -0.40917
rocket -0.7589 -0.048517 -0.3419 0.43569 -0.26149 -0.41701 1.4197 0.071032 0.19189 1.7343 -0.075066 -0.3844 0.72982 0.43115 0.014872 -0.15949 -0.47488 0.54407 -0.51206 0.45661 0.91531 -0.53997 -0.56571 0.44308 0.46003 0.93335 -0.8411 0.58144 0.24748 0.37628 -0.44456 0.018038 -0.6738 0.53414 0.33857 -0.58096 0.22982 -0.18467 0.47815 0.26848 -0.60577 0.058895 -0.14668 0.48053 0.71319 -0.36659 -0.096911 0.65809 -0.1794 0.12878 -0.11663 0.70197 0.18391 0.9595 0.39391 -1.8271 -0.21619 0.50707 1.2413 0.29833 0.49957 0.46483 0.52288 1.4425 -0.076159 0.78259 0.56248 0.04076 -0.86032 0.023794 0.28679 -0.8865 -0.15278 -0.28923 -0.48499 0.16892 0.8951 0.34617 -1.5552 -0.12431 0.92213 0.11942 -0.72065 -0.15417 -0.44404 0.020276 0.78977 -0.18025 0.27795 -0.031635 0.024725 1.1255 0.15172 0.50362 -0.3334 0.46577 -0.34179 0.51168 0.92858 -0.22453
bear 0.058599 0.32109 0.13023 -0.082613 -0.21887 -0.36561 -0.61741 -0.38255 -0.15554 -1.2769 -0.33592 0.72739 0.83975 0.15045 0.15586 0.58761 0.76943 0.050015 -0.74405 0.27222 -0.17157 -0.0263 -0.41211 0.2121 -0.063788 0.72447 -1.3064 0.18043 -0.23386 -0.087528 0.65693 -0.31243 0.027384 0.067259 -0.088452 -0.3833 0.47839 0.27438 0.6315 -0.43812 0.42713 -0.16148 -0.51099 -0.11995 -0.021659 0.34015 0.35593 0.55595 -0.84954 -0.52109 -0.3573 -0.32797 0.1428 0.87888 0.25859 -2.0342 -0.016375 -0.36715 0.78913 0.013592 0.68704 1.2293 -0.29089 0.34655 0.95929 0.044547 0.20548 0.34915 0.074704 0.17018 -0.89121 -0.42363 -0.43282 0.1571 -0.014452 0.070268 -0.90682 -0.19523 -0.94521 -0.14821 0.46188 -0.20295 -0.28233 -0.32566 -0.44746 -0.41196 -0.38912 -0.63425 0.83687 0.48267 0.097352 -0.45653 0.64334 -0.79794 -0.35467 0.20268 -0.68918 0.11792 0.36543 0.22123
castle -0.88908 -0.36545 0.39854 0.79412 -0.18891 0.21221 -0.54411 0.062607 0.053085 -0.25967 0.7164 0.62428 -0.42476 0.90545 -0.17221 -0.60816 0.69492 0.002954 -0.70527 0.26776 0.15362 -0.64645 -0.25373 -0.02799 0.042421 -1.0744 -0.45369 -0.43991 -0.7687 -0.17295 0.03164 -0.48534 0.40548 -0.049849 0.61072 0.55808 -0.14578 -0.57651 0.74136 -0.35091 -0.27633 -0.083805 0.26041 0.37129 0.32805 0.10741 0.44253 0.15842 1.0682 0.22094 -0.16963 -0.5464 0.34365 0.10146 -0.064838 -2.5687 -0.98732 -0.67543 -0.41935 -0.27609 0.32234 1.0123 -0.69481 0.72443 0.49836 -0.48178 0.33847 0.035304 -0.11554 -0.070166 -0.08383 -0.20358 0.50188 -0.44466 -0.17758 -0.90982 0.21037 0.45476 -0.53128 1.2804 -0.16145 0.15386 0.5053 0.16992 0.1464 0.57514 -0.50766 -0.80886 0.99505 0.40494 -0.090272 -1.4758 1.2865 1.0239 -0.5393 -0.38532 0.12164 0.075499 0.85887 -0.50103
helicopter -0.815 -0.25258 0.055292 0.64656 -0.50819 0.0033169 0.72375 0.62426 0.025232 0.34015 0.47793 0.18716 0.54873 0.1525 0.052446 -0.43071 0.41271 -0.54074 0.11882 0.67057 0.33255 0.060445 0.1895 -0.12668 0.25208 0.31797 -1.0074 1.0787 -0.051203 -0.12393 -0.46247 -0.11996 -0.59137 0.84699 0.45839 0.3997 -0.040091 0.39368 0.99564 0.6164 -0.63004 0.31205 0.10551 0.52847 0.68861 0.57185 -0.79047 0.60207 0.00085275 -0.425 -0.36228 0.87106 0.32618 1.5341 0.54051 -1.0729 0.031919 -0.084792 1.962 0.72032 0.11044 0.72899 1.0233 1.003 -0.51919 0.39977 -0.70555 -0.2309 -1.0826 1.1616 -0.76329 -1.5454 0.079216 -0.10878 0.49082 0.37033 0.51488 0.83952 -1.0711 0.15023 0.45507 0.094315 0.30059 -0.19629 -0.35892 -0.39467 0.89651 -0.13934 -0.1617 -0.19899 0.35108 -0.59121 -0.18541 0.073821 -0.63647 0.47986 -0.39445 0.26336 0.1773 -0.6128
device -0.52576 -0.14904 0.34296 -0.19419 0.3286 -0.061687 0.32592 -0.10179 0.83431 0.81554 0.21013 -0.5126 0.20585 -0.23257 0.54535 0.24507 0.25886 0.58521 0.028037 -0.39039 -0.040689 -1.4263 0.25051 -0.33105 0.37924 0.24249 -0.20729 0.39215 -0.56437 0.31813 0.1869 0.8651 -0.55579 0.071162 0.70397 -0.4451 -0.13086 -0.13293 1.0662 -0.21264 0.1507 0.01594 0.50483 -0.81278 -0.68306 -0.37892 0.25392 0.18385 -0.44197 -0.25203 0.29839 0.80001 0.46947 0.82581 0.0090693 -1.7188 -0.80887 -0.13621 1.4265 0.22061 0.69586 0.86562 0.56282 1.0591 -0.40775 -0.17956 0.18002 -0.48679 0.21283 -0.11276 -0.11898 0.18111 0.67764 0.30098 0.19192 -0.022761 0.89712 -0.36254 -0.19529 0.086591 0.74123 -0.47986 -0.90574 0.10653 -1.9516 0.23715 1.3531 -0.064386 -0.14581 0.10944 0.11441 0.94837 0.30633 0.022763 0.5863 0.42978 0.34354 -0.41912 1.0425 -0.48956
apple -0.5985 -0.46321 0.13001 -0.019576 0.4603 -0.3018 0.8977 -0.65634 0.66858 -0.49164 0.037557 -0.050889 0.6451 -0.53882 -0.3765 -0.04312 0.51384 0.17783 0.28596 0.92063 -0.49349 -0.48583 0.61321 0.78211 0.19254 0.91228 -0.055596 -0.12512 -0.65688 0.068557 0.55629 1.611 -0.0073642 -0.48879 0.45493 0.96105 -0.063369 0.17432 0.9814 -1.3125 -0.15801 -0.54301 -0.13888 -0.26146 -0.3691 0.26844 -0.24375 -0.19484 0.62583 -0.7377 0.38351 -0.75004 -0.39053 0.091498 -0.36591 -1.4715 -0.45228 0.2256 1.1412 -0.38526 -0.06716 0.57288 -0.39191 0.31302 -0.29235 -0.96157 0.15154 -0.21659 0.25103 0.096967 0.2843 1.4296 -0.50565 -0.51374 -0.47218 0.32036 0.023149 0.22623 -0.09725 0.82126 0.92599 -1.0086 -0.38639 0.86408 -1.206 -0.28528 0.2265 -0.38773 0.40879 0.59303 0.30769 0.83804 -0.63655 -0.44639 -0.43406 -0.79364 -0.28675 -0.034398 1.3431 0.34904
institution 0.39403 0.53014 -0.18898 0.41334 0.13847 0.28913 -0.063853 0.21489 -0.093532 0.39999 -0.023381 0.23753 0.35484 0.44946 -0.51286 -0.081584 0.88368 0.20021 -0.27668 0.29267 -0.80472 0.37376 -0.066291 -0.88032 -0.35286 -0.7938 -0.30268 -0.79071 -0.23683 0.40577 0.10419 0.48553 -0.25585 0.12158 -0.5622 -0.17359 -0.73315 0.17038 -0.38426 -0.53755 -0.60541 0.028886 -0.508 0.4338 0.28726 -0.21338 1.0474 0.69741 -0.82951 -0.2764 -0.16551 -0.55397 0.43292 0.12683 -0.29806 -2.0449 0.31182 -0.9423 1.4632 0.63071 -0.056021 -0.36837 -0.033118 0.19432 0.17315 -0.28619 -0.45406 0.61373 0.72687 0.32964 0.50316 0.026581 -0.0054299 -0.032547 -0.18424 -0.45882 0.031077 -0.22616 -0.5464 -0.47082 0.16601 0.37927 -0.026047 0.31512 -0.67049 0.4552 -0.20309 -0.10239 0.36073 -0.87079 0.065255 -0.58653 0.70243 0.091761 -0.36732 0.57387 0.73556 -1.3271 0.069226 0.22964
jet -0.016044 0.21109 0.6549 -0.12216 0.0589 -0.37663 0.94557 -0.16361 -0.43025 0.93868 0.34488 -0.016093 0.2396 0.42549 -0.68395 -0.96041 -0.23857 0.037571 1.2024 0.14016 -0.080892 -0.086664 0.31061 -0.11721 0.66818 0.49179 -0.55988 0.52287 -0.16977 -0.26363 -0.63165 0.59835 -0.64795 0.21915 0.17203 1.0083 0.61769 0.19323 0.78931 0.63377 -1.0162 -0.57789 -0.21968 0.18671 0.9251 0.43868 0.046344 -0.2112 0.43023 -0.34308 -0.42254 0.93638 -0.1486 0.89042 0.63499 -1.1249 -0.16407 0.97435 2.3558 0.0010254 0.52856 0.89202 0.22522 0.61845 -0.62831 0.086792 -0.13135 -0.13471 -0.60005 0.57772 -0.29404 -1.4791 -0.011654 -0.22399 0.064905 -0.087339 0.7606 0.20952 -0.72227 0.41127 0.17541 -0.25891 -0.1412 -0.18812 -0.2639 -0.4791 0.49639 -0.32734 -0.63681 -0.16131 0.14291 0.052806 -0.011205 -0.15888 -0.50936 0.57583 -0.32125 -0.3516 0.51385 -1.0484
wear -0.31425 -0.055858 -0.64884 -0.68772 -0.64624 0.58086 -0.43332 1.082 -0.64175 0.73289 -0.2841 -0.84534 0.95458 0.51516 0.42145 -0.23868 0.77569 0.32918 -0.040118 -0.60608 -0.17151 -0.41066 -0.3587 -0.42123 0.18979 0.62306 -0.15576 -1.4975 0.90209 -0.83421 0.13069 -0.11264 -0.34645 -0.6838 0.68789 0.71175 -0.13178 0.1413 0.12203 0.1965 0.4263 0.19417 -0.053709 -0.48047 -1.151 -0.089763 0.49294 0.69981 0.39477 -1.1387 0.32479 0.50503 -0.43304 0.66242 -0.12091 -1.4448 0.03938 0.13615 1.319 0.072537 0.044174 0.88543 -0.47797 0.60922 0.36341 0.1698 0.66113 -0.55033 -0.3397 -0.013976 -0.079266 -0.33694 -0.35983 0.33221 0.55689 0.31531 0.043332 -0.05136 0.35913 -0.49282 0.1689 -1.0529 -0.11005 -0.019269 -1.0601 -0.67085 -0.56353 0.25667 0.41798 0.66443 0.44137 -0.68198 0.71614 -1.0022 -0.53011 -0.23256 -0.59413 -0.21376 0.25266 0.045311
fighter 0.14165 0.23831 0.50766 0.086155 -0.34493 -0.30752 0.98937 -1.3972 -0.91414 1.1866 0.82735 -0.62058 0.28594 -0.53473 -0.31791 -0.53938 0.14293 -0.19411 0.74415 0.37653 0.68931 -0.41271 0.61913 -0.039225 0.64477 0.32032 -0.21163 0.34699 0.59065 0.36609 -0.94856 0.57538 -0.35865 0.64704 1.005 0.62277 -0.32223 -0.12029 0.62466 0.47719 0.034797 0.45256 0.68772 -0.0019565 0.97442 -0.21861 -0.066567 0.048889 -0.183 -0.15091 -0.6377 0.64642 -0.10831 1.4556 0.66638 -0.817 0.27123 0.39165 1.8099 0.43337 0.68453 1.0832 -0.081683 0.67031 -0.22477 0.10218 -0.45499 0.51776 -0.63851 1.0995 0.39166 -1.7935 -0.39875 0.27505 0.22218 0.21587 0.025803 0.58263 -0.46579 0.64988 -0.024553 -0.71207 0.14546 0.004465 -0.67163 0.024195 -0.048852 -0.22323 0.19513 -0.11756 -0.15219 -0.52119 0.16968 0.41218 -0.38128 0.33486 -0.0057617 -0.15511 -0.14131 -0.53509
tiger -0.82157 0.7952 0.80816 -0.09699 -0.11838 0.021151 0.62663 -0.62621 -0.602 -0.76326 -0.29244 1.0718 1.0264 0.51485 -0.26717 0.98914 -0.13989 -0.14031 0.068456 0.64535 0.25223 -0.32911 0.16927 0.38475 0.41674 1.097 -0.66572 -0.64471 -0.12801 -0.55854 -0.36549 0.079815 0.17361 0.13237 1.0031 -0.50629 -0.84352 0.8185 0.41386 -0.17179 -0.49508 0.61723 0.55838 0.36077 0.34123 0.13034 -0.11284 0.4226 -0.67964 -0.66582 -1.1275 0.16545 0.028074 0.59515 0.40081 -1.5653 -0.38159 0.16342 0.81675 0.43633 -0.051347 0.68191 -0.66771 0.94923 0.24136 0.64997 0.24963 0.41191 0.19212 1.1599 -0.089726 -0.55557 -0.64921 -0.39078 -0.65487 0.031186 0.073248 0.45036 -0.83119 1.1082 0.29897 -0.83352 0.20487 0.19633 -0.12631 0.33189 -0.16336 -0.12867 0.22577 1.0092 0.51273 -0.30085 -0.012987 -0.087924 -0.47341 0.26818 -0.82033 0.37465 0.73564 0.11336
covering -0.5661 0.25471 -0.12663 0.63828 0.64051 0.50825 -0.5706 0.64085 -0.41561 -0.018372 0.75343 -0.46357 0.63434 0.30161 0.63767 -0.16136 0.34151 0.066799 0.084997 -0.73688 -0.13107 0.52294 0.061048 -0.21267 0.31894 -0.1847 0.37435 -0.3446 -0.55599 0.024785 -0.22084 -0.31459 0.35619 -0.19623 -0.42142 -0.10861 0.17924 0.18264 -0.61346 0.62517 -0.29523 -0.56241 0.061232 0.24028 -0.61277 0.12823 -0.010879 -0.24224 -0.20602 -0.39094 0.20448 0.69427 -0.17435 0.92908 -0.33705 -1.1121 0.1957 -0.50959 1.7819 0.75265 0.12408 0.94456 -0.20447 -0.0077262 0.77591 0.023618 0.70114 -0.11979 0.42153 -0.028081 0.031766 0.35329 -0.054518 0.72467 0.035564 -0.23656 0.2708 0.72589 -0.45493 0.11656 0.53568 0.20071 0.12071 0.15581 -0.78436 -0.11782 -0.34629 -0.087536 0.63138 0.63027 0.44795 -0.33657 -0.0098493 -0.69305 -0.12219 0.48431 -0.042119 0.072769 0.83271 -0.13058
guitar -0.36918 0.6997 -0.044431 -0.93855 0.76038 0.67506 0.038351 -0.097795 -0.62321 -0.13562 0.16266 -0.79222 -0.59344 0.45988 0.12299 -0.063218 0.067302 -0.29527 0.71264 0.34195 0.20494 -0.59688 0.47401 -0.18386 0.5241 0.19029 -0.74126 -0.24884 1.1619 0.97649 -0.91414 0.39751 -0.26795 0.39088 -0.64415 -0.32558 0.086841 0.17191 0.56155 -1.0416 0.40924 0.075273 0.30653 0.5529 -0.76978 0.35365 -0.27148 -0.3274 0.45099 -1.0011 -0.96912 0.13217 -0.50068 -0.096093 0.52369 -2.0897 -0.40086 -0.0040273 0.20697 1.1286 1.191 0.71676 -0.31017 0.12596 -0.14615 -0.86376 0.68761 -0.21523 -0.10506 -0.18169 -0.58514 0.91307 0.41307 -0.22268 -0.10142 -0.17575 0.36836 0.26278 1.1609 -0.19914 0.36047 -0.63631 0.26283 -0.38601 -0.86987 0.5071 0.23742 -1.0582 -0.69611 0.068304 -0.91402 0.054357 -0.25864 0.099061 0.35682 0.061406 -1.7777 -0.95001 1.1103 -0.089088
bed -0.83528 0.57023 0.19219 -0.025946 -0.50039 0.36531 0.16811 0.98349 -0.16987 -0.40123 0.82593 0.77665 0.30743 1.1451 1.0567 -0.46868 -0.48286 -0.26397 -0.14814 -0.82403 -0.31156 0.56133 -0.12384 -0.054355 0.42796 0.38446 -0.38117 -0.53408 -0.34122 0.15891 0.30952 -0.16873 0.36541 0.035137 -0.0095616 0.79946 -0.50871 -0.031998 0.95187 -0.56081 0.23932 0.014487 -0.15236 -0.73492 -0.24992 0.36617 -1.2171 0.42764 0.47683 -0.28761 -0.46801 -0.44108 0.641 1.0611 -0.14081 -1.885 -0.20596 -0.087876 1.2402 0.13708 0.40899 0.5898 -0.14214 -0.13007 0.31583 0.60933 1.0137 -0.31204 -0.34454 -0.45771 -0.26633 0.067238 0.6028 -0.21555 0.27647 0.51912 0.33038 -0.1537 0.36153 0.14506 0.021452 0.71533 0.33153 0.32344 -0.41465 -0.45996 0.2721 -0.37398 -0.8419 0.42759 0.44187 -0.68238 0.81183 -0.16322 -0.060373 0.1544 0.025293 -0.25826 1.1413 -0.20566
chair 0.0065461 0.37421 0.10797 -0.082747 0.64901 0.30169 -0.073074 0.93806 -0.63044 -0.51392 -0.37892 -0.58334 0.35183 1.1785 0.030233 -0.10038 -0.26562 0.23061 -0.39409 -1.2905 -0.48042 0.24882 0.32405 -0.60272 0.70835 -0.29148 -0.52192 -0.68477 0.32833 0.1365 -0.1287 0.54085 -0.17068 0.20286 -0.78958 0.50968 -0.64833 0.46491 0.50427 -0.15785 -0.54493 -0.35393 0.66042 -0.71844 -0.48376 0.49241 -0.60408 0.53023 -0.89401 -0.39691 -0.61351 -0.46707 -0.018895 0.50907 -0.10905 -2.0831 0.33063 0.3548 0.98301 0.080053 0.12678 -0.061691 -0.039855 0.33585 0.13318 -0.35239 0.43726 0.84516 0.21468 0.30733 0.76884 0.44288 0.74522 -0.26943 -0.6214 -0.13356 -0.53495 0.096564 0.26305 -0.49739 -0.45149 -0.1694 0.11016 -0.31119 -0.32883 -0.39835 0.34864 -0.24336 0.33879 -0.91043 0.6816 -0.62344 0.90965 0.76285 0.75305 0.48748 0.0452 0.15256 1.1562 -0.19654
clothes 0.33861 0.45434 -0.23578 -0.89419 -0.24098 0.73246 0.17988 0.82492 -0.08437 0.94096 0.1158 -0.36823 0.84522 0.80743 0.64618 0.019698 0.055933 0.36365 0.024345 -0.37086 -0.10492 0.12867 0.72219 -0.48669 -0.23911 0.42751 -0.72851 -1.2024 -0.4633 -0.62146 0.67598 -0.4567 -0.65761 -0.52033 -0.10533 0.54841 0.048697 -0.24858 0.02174 -0.55638 0.48365 -0.38573 0.17995 -0.42521 -0.91086 0.16691 -0.71967 0.71807 0.82401 -0.87774 0.49541 0.41124 0.19525 0.82876 -0.20873 -1.2104 -0.71956 0.68208 1.1247 -0.10853 0.14722 1.2621 -0.5867 0.83666 0.48395 0.10671 0.87453 -0.75306 -0.15548 -0.51254 0.0015941 -0.3546 0.057168 0.035699 0.77387 1.0674 -0.16337 0.58636 0.29557 0.096391 0.40623 0.06209 0.12993 0.078855 -1.0827 -0.56128 -0.87871 0.17126 -0.60112 -0.21488 0.82694 -0.3925 1.5456 -0.95169 -0.79991 -0.43895 -0.48349 -0.024972 0.70715 0.80798
weapon 0.25962 0.43486 0.43455 -0.3638 -0.037513 -0.51564 0.77009 -0.22438 0.58913 1.4367 -0.31981 -0.4369 -0.25607 0.23345 0.2988 0.3259 0.36385 0.57279 -0.95932 -0.40016 0.66236 -1.0394 -0.34103 -0.59045 0.50005 0.8828 -0.39156 0.13036 -0.187 0.63142 0.10033 -0.099835 -0.70923 -0.11732 0.83675 -0.62475 -0.078574 -1.0916 0.40854 -0.10715 -0.21524 0.16577 0.51585 -0.35099 0.43844 -0.39403 0.43774 -0.12161 -0.92607 -0.46893 0.44106 0.63713 -0.22473 1.1181 0.794 -1.2516 -0.22235 -0.45356 1.1984 -0.1928 0.29476 0.48275 0.025797 0.67105 0.4082 -0.21329 0.48093 0.017089 -0.32728 0.65296 0.031266 -0.88409 0.67024 0.44557 -0.028632 0.031902 -0.34679 -0.25508 -0.7328 0.32252 1.1132 0.30107 -0.3711 -0.47212 -1.0063 0.36631 0.40743 0.20718 0.07957 -0.25055 -0.71638 0.29006 0.84891 0.3634 0.11641 -0.10228 -0.25236 -0.36095 0.72996 -0.049468
fruit -0.86569 0.48033 -0.39666 -0.025072 0.44128 0.035809 0.95703 -0.17822 0.36558 -0.60164 -0.74234 -0.20718 1.0464 0.71338 0.52921 0.6374 0.70004 0.076855 0.49395 0.60345 -0.21644 -0.095131 0.22147 -0.34606 0.13988 1.7193 -0.34325 -0.77857 -0.68982 -0.037499 -0.38076 0.22248 0.75778 -1.0243 -0.23718 0.72129 0.68189 0.24533 -0.12974 -0.95904 0.066935 -1.1968 0.03758 -0.58316 0.69865 0.038736 -0.27247 0.20382 -0.47162 -0.5867 -0.010307 -0.74813 -0.18862 0.91337 0.11473 -0.40812 -0.73894 0.39013 1.1071 -0.12794 -0.091153 1.3255 -0.43077 0.025077 -0.050621 -0.63866 0.05308 -0.64261 0.58502 -1.061 -0.13836 0.34737 0.28509 -0.40161 0.019269 0.64013 -0.82764 -0.6887 -0.37054 0.74229 0.26743 0.10443 -1.2645 0.34082 -0.079118 -0.77277 0.58775 -0.14757 0.16153 0.19908 0.13143 -0.039375 -0.70586 -0.53316 -1.1106 -0.32728 -0.93075 -0.69826 1.1922 0.41204
clothing 0.56509 0.53219 -0.48989 -0.58939 0.22428 -0.067717 0.30236 0.37299 0.014483 0.8573 -0.14878 -1.1791 0.71315 0.30967 0.73622 0.32313 0.58131 0.0070472 -0.10611 -0.56006 0.24728 0.039029 0.8128 -0.17624 -0.21948 0.63689 -0.23961 -1.2024 -0.80896 -0.66452 0.41547 -0.39473 -0.45849 -0.54254 -0.085239 0.83456 0.22601 0.13444 -0.19935 -0.43579 0.81847 -0.20662 0.080078 -0.065273 -0.67663 0.16034 -0.46589 1.019 0.6418 -0.65494 0.60218 0.51643 -0.20379 0.32639 0.096649 -1.0697 -0.91331 0.081831 1.6381 0.11657 0.51598 0.34445 -0.060346 0.68621 0.48929 -0.15143 0.67955 -0.63734 0.44545 -0.65408 -0.29872 -0.0287 -0.17765 0.32562 0.83966 0.84878 0.010435 0.45184 -0.24605 0.10357 0.11146 0.095611 0.012148 0.33458 -0.89622 -0.86469 -0.78123 -0.16059 -0.25073 -0.059823 0.85403 -0.31347 1.2005 -1.1224 -0.76204 -0.42923 -0.58246 -0.17086 1.2975 0.09516
vessel -0.092286 -0.1645 -0.063427 -0.32652 -0.27042 -0.5343 0.62753 0.12721 0.45564 0.56559 0.44361 0.87256 0.84835 -0.08721 -0.075832 -0.84877 0.45613 -0.40702 -0.052175 -0.16298 0.65191 -0.19939 -0.045734 -0.8344 0.44485 0.28764 -1.6366 0.029885 0.2779 0.05366 -0.29038 0.23585 -0.22166 0.032952 0.37625 -0.50078 -0.026192 0.288 0.56751 -0.075807 -0.69553 -0.79464 0.084709 0.13537 1.5822 0.29566 -0.466 0.0432 -0.10395 0.6647 0.74424 1.0237 0.63882 1.0023 -0.043087 -1.2333 -0.77465 -0.73242 1.8737 0.81157 -0.64458 0.15969 0.0031806 0.81082 -0.41019 0.88241 -0.67551 0.10217 0.16207 -0.17782 -0.34121 -0.30408 0.74513 0.18451 0.31464 0.59858 0.23574 0.12893 -0.54796 -0.16035 0.061966 -0.24852 -0.36299 1.1087 -0.10675 -0.75197 1.0708 -0.54916 -0.39127 -0.38688 -0.22017 -0.048375 0.42699 -0.05054 0.56385 0.2625 -0.72796 -0.80754 0.18206 -0.59683
bomber -0.16022 0.26942 -0.091309 -0.40817 -0.07624 -0.0043052 1.1717 -0.40295 -0.31643 1.503 0.37431 -0.066307 0.18593 0.69405 0.56899 0.24504 0.062783 -0.24454 -0.68259 0.28454 0.52389 -1.4187 0.25215 -0.57449 -0.026438 0.423 -0.37732 0.19171 -0.042672 0.36045 -0.32053 0.086518 -0.071064 -0.00027037 -0.030173 -0.19975 0.1729 0.13175 1.1106 0.85597 -0.20895 0.068573 1.5484 0.91858 0.94129 -0.10369 0.54417 0.75009 -0.045633 -0.16676 -0.79433 0.65191 -0.20975 1.6954 -0.80868 -1.1213 -0.21863 0.39285 1.1463 0.32851 0.63003 1.0156 0.66308 0.67821 -0.137 0.13507 0.074333 0.14921 -0.88208 0.78063 -0.31621 -2.0468 0.22362 -0.41632 -0.021488 0.34695 1.1441 -0.39027 -0.37844 -0.35538 -0.22286 -0.27122 -0.21792 -0.050752 -0.53159 -0.77323 0.34279 -0.59495 -0.27175 0.68986 0.80391 -0.30582 0.75551 -0.54891 -0.22766 0.69468 0.48768 0.12259 0.10551 -0.59751
object -0.16261 0.87222 0.0086677 0.58327 0.092695 0.4641 -0.5059 -0.38724 0.97244 0.11728 -0.44092 -0.64257 0.58841 -0.41069 0.16769 0.043076 0.11497 1.3557 -0.045843 0.28392 -0.18252 0.05081 -0.40996 -0.11158 0.66707 -0.071712 0.23119 0.50079 0.25795 -0.42406 0.27647 0.54694 -0.52765 0.15324 0.62865 -0.32388 0.30747 -0.030743 0.52224 -0.3493 -0.77926 -0.505 0.52575 0.20928 -0.40334 0.2378 0.1704 0.71969 -0.22712 -0.077639 1.2241 0.42925 0.44532 1.2221 -0.069814 -1.458 0.1049 -0.055047 1.5673 0.46821 0.11327 0.76072 -0.47217 0.52064 0.82261 -0.18815 0.50718 -0.14995 -0.2817 -0.30089 -0.51976 -0.46393 0.78791 -0.023017 -0.059957 -0.27827 0.049114 -0.64217 -0.65806 -0.18655 -0.42251 0.070198 -0.57117 -0.82888 -0.76626 0.10035 0.5405 -0.054826 0.46765 -0.37122 -0.38853 0.36335 0.38018 0.38728 0.78351 -0.262 -0.73744 -0.67453 0.41328 -0.4813
dress 0.13499 0.033554 -0.33989 -0.44609 -0.61058 0.98282 0.039392 0.76451 -0.48815 1.1312 -0.686 -0.21415 0.96853 0.64503 0.10648 0.33772 0.57929 0.017568 0.063677 -0.89837 -0.65801 -0.74037 0.68477 -0.5934 0.33966 0.37071 -0.82219 -1.3647 -0.10964 -1.3369 0.095773 0.15312 0.48879 -0.88236 0.76992 0.81692 -0.042942 -0.10936 0.11846 0.019196 0.3265 -0.51199 -0.26419 0.20908 -0.96253 -0.72829 -0.4875 0.45635 0.61214 -0.80666 0.23691 0.54813 0.2023 0.63219 -0.992 -1.6509 -0.10158 0.66194 1.0536 0.58208 -0.18718 0.77212 -0.56964 0.43754 0.11528 -0.24002 0.34678 -0.31561 -0.038015 0.087975 -0.0075159 -0.2941 -0.53614 0.037608 0.56637 0.58123 -0.25574 0.038668 0.56246 -0.29814 -0.36895 -0.75764 0.86935 -0.18349 -1.0133 -0.81135 -0.61273 -0.2155 -0.037452 0.26593 0.27645 -0.57383 0.51967 -1.0846 -0.23943 -0.36462 -0.80496 -0.50047 -0.12062 0.41116
implement -0.63963 -0.44104 -0.53116 0.49663 -0.077903 -0.50219 -0.54826 0.52699 0.2559 0.47114 0.065741 -0.17957 0.043325 -0.11205 -0.27228 0.023261 0.26996 0.41939 -1.0277 -0.46818 -0.30353 -0.877 -0.056046 -0.15529 -0.32593 -0.22945 -0.42707 -0.49317 -0.35668 0.18352 -0.29916 0.7824 0.10479 -0.068455 -0.1796 0.20343 0.47093 -1.2491 -0.55714 -0.1274 -0.37327 0.4442 0.63968 0.076443 -0.8751 0.37386 -0.16205 -0.15668 -0.72251 -0.76294 -0.17742 0.22902 0.0046133 0.77358 -0.097492 -0.80141 0.82621 -0.27565 1.3558 -0.51032 0.0036626 -0.26509 -1.0266 -0.37617 0.71785 -0.086424 -0.94188 0.69175 0.13394 -1.011 0.61162 -0.37835 -0.54147 -0.64055 0.46536 -0.28091 -1.0485 0.56512 -0.75007 -0.4814 0.79458 0.068884 -0.74824 0.32042 -0.82227 1.1119 0.72462 -0.093744 -0.95854 0.18821 -0.044452 0.054285 -1.2269 -0.23097 -0.38014 0.061647 -0.17647 -0.32618 0.92232 0.12033
corn 0.12913 0.94197 0.27505 -0.27319 0.024218 -1.4009 0.77518 0.020114 -0.32928 -0.28259 -1.1653 -0.39448 0.11827 0.53344 0.57081 0.16759 -0.38933 0.48589 0.56987 -0.082294 -0.10391 2.3654e-05 1.3027 0.21206 0.046419 0.82382 -0.23648 -0.8935 -0.76356 0.27763 -0.48113 -0.047085 0.80914 -0.23384 -0.35027 1.0554 0.24859 0.12929 0.76254 -0.35269 -0.079704 -1.5675 -0.24058 -0.72029 0.82785 -0.71075 -0.96576 -0.44217 -0.42957 -1.4634 -0.7949 -0.24426 0.62315 0.4329 -0.80227 -0.30103 -0.6463 -0.19148 1.0119 -0.25153 0.50087 0.4865 0.29224 -0.30604 0.44148 -0.95052 -0.15182 -0.04608 0.45231 -0.88889 -0.43612 0.50648 0.23431 0.63983 -0.4169 -0.00027314 0.15742 -0.25618 -0.73304 1.4358 0.52706 -0.29222 -2.1212 0.44698 -0.42205 -0.50192 0.0073118 0.094573 -0.041327 0.84634 0.031427 0.098128 -1.0366 -0.23892 -1.2212 -1.1959 0.27558 -0.16097 0.5021 0.26533
bag -0.47981 0.20963 0.28709 -0.96992 -0.082366 0.6799 0.58455 0.76565 0.27056 0.33818 0.30404 0.035035 -0.11251 0.77807 0.40316 0.37327 0.62617 0.36223 0.1469 -0.80491 -0.082232 0.22542 -0.3419 -0.72515 0.41322 0.56049 -0.18406 -0.84558 -0.33033 -0.32269 -0.03368 -0.16566 0.11023 0.07246 0.22264 0.27425 0.11551 0.32004 0.54079 -0.53373 0.36514 -0.95486 0.96945 -0.96607 -0.71563 0.3354 -0.75834 0.3477 -0.26012 -0.31523 0.13754 0.73761 0.28643 1.0257 -0.51289 -1.2064 -0.43001 0.3032 1.4753 0.0052773 0.68161 0.43473 0.015818 1.0475 -0.035287 -0.42816 0.35977 -0.41322 0.13189 -0.10468 -0.56283 -0.11545 0.41647 0.39828 -0.10006 1.0679 0.0045459 -0.19705 -0.16776 0.94237 0.33944 0.042042 -0.24697 -0.60955 -0.89005 -1.0979 0.46529 -0.17461 -0.87865 0.91728 0.079195 0.80083 0.78096 -0.63432 0.17727 -0.08728 0.52976 0.17687 0.62749 -0.0062992
cathedral 0.74379 1.1903 -0.44266 0.052408 0.54315 1.2238 -0.32064 0.15484 -0.29196 0.40409 0.05158 0.17166 0.54627 1.2518 -0.23742 -0.98958 0.42432 0.75 -0.53661 0.095881 -0.99936 -0.70529 -0.095858 0.23387 -0.1388 -1.0033 -0.40973 0.20777 0.23912 0.17865 0.10039 -1.6522 0.47771 0.6676 -0.9423 0.20619 0.014464 -0.16981 0.35713 -0.20792 0.085773 -0.15003 0.53338 -0.12529 0.54094 0.20312 0.80478 -0.11983 0.72625 0.21934 0.31736 -0.50382 -0.0065835 -0.27098 -1.4887 -2.7238 -0.84549 -0.41848 0.19024 -0.57551 -0.088279 0.32467 -0.28274 -0.12826 -0.5705 -0.56819 -0.67202 -0.0059985 -0.22336 -0.24842 0.30477 0.031445 0.69293 -0.6464 0.61472 -1.1638 1.0633 0.58892 0.51282 0.03316 -0.24743 -0.15785 -0.040079 0.5269 -0.54686 -0.14227 -0.15591 -0.60657 0.85888 -0.19555 0.55707 -0.69352 0.016655 1.2381 -0.90876 -0.37163 -0.23111 -0.22076 0.51249 0.42139
piano 0.46294 1.013 -0.18641 0.89506 0.72946 0.75955 0.40136 0.29358 -0.67894 -0.13134 0.43428 -0.27254 -1.0708 0.98718 -0.6942 0.54525 -0.14064 0.1021 0.57523 0.076009 -0.56662 -0.19712 0.52568 -0.47241 0.73591 -0.34461 -1.3822 -0.39609 0.91048 0.74365 -1.1223 -0.060041 0.1094 0.20399 -1.0715 0.19937 0.67365 0.16627 0.27735 -0.93772 0.75991 0.073634 0.034453 0.19691 -0.36423 -0.29562 -0.10641 -0.42014 0.29591 -0.2912 -0.8536 -0.081591 -0.31543 -0.34675 -0.20133 -1.8507 -0.34535 -0.16468 0.26683 1.2418 0.44084 0.75304 -0.42001 0.46973 -0.080578 -0.49114 0.74119 0.54986 -0.087373 0.049194 -0.43485 0.35875 0.78083 0.10539 -0.13866 0.31238 -0.085223 -0.25624 1.1606 -0.83126 0.34683 -0.47009 0.044638 -0.37953 -1.3792 0.27417 0.035849 -1.1122 -0.76379 -0.039846 -0.81113 -0.062938 0.35605 0.6029 0.25436 0.45007 -1.2839 -1.1759 0.56433 -0.19154
cattle 0.63463 0.26451 0.14755 -0.68763 -0.24742 -0.74189 0.37406 0.55721 -0.087431 -1.0687 -1.3894 0.46069 0.68374 -0.44588 0.6918 0.75942 0.23591 -0.14589 -0.32165 0.22692 1.0356 0.44263 0.57934 -0.75898 0.33567 0.28429 -0.64018 -0.25464 -0.36805 0.99312 -0.0054045 -0.21751 0.76974 -0.67645 0.25191 0.14368 -0.20392 -0.21059 -0.10053 0.16631 0.40113 -0.78515 -0.028963 -0.83991 0.16871 0.035806 -0.12932 -0.44598 -0.26316 -1.4201 -0.4049 0.20001 0.35035 0.51858 -0.41154 0.47019 -1.2372 -0.68075 0.99546 -0.079363 1.1274 0.88694 0.97642 -0.15067 1.1898 0.7883 -0.5183 -0.68606 1.3258 -0.075949 -0.44695 -0.1133 0.25614 -0.066091 -0.036798 -0.54381 0.43807 0.8259 -1.1864 0.38034 0.98483 0.80068 -0.76594 0.5516 -0.57009 -0.23828 0.18256 0.31162 -0.25448 0.70552 -0.4684 -0.60297 0.24871 -0.22709 -1.631 -0.76305 -0.050691 0.03904 0.78364 -0.81955
tool -0.76371 0.46849 -0.42437 -0.14351 0.53962 -0.58267 -0.17082 -0.73426 0.66004 0.26091 0.18441 -1.1196 -0.10025 -0.60416 0.047888 0.64329 0.73139 -0.16972 -0.32125 0.047193 -0.11353 -0.21215 -0.12999 -0.41137 0.118 -0.0092386 -0.20869 0.17372 -0.95741 -0.061085 0.10412 0.76594 -0.32003 -0.16389 0.13718 -0.38405 -0.54806 -0.4064 0.79785 -1.0632 -0.46027 0.32914 0.033041 -0.47758 -0.84577 -0.2552 0.21597 -0.017401 -0.5654 -0.35536 -0.17125 0.10968 -0.3084 1.3231 0.2833 -1.3514 -0.25881 -0.29452 1.4352 -0.16256 0.02301 -0.19011 0.1335 0.60058 0.36272 -0.10787 0.086311 -0.16759 0.68479 -0.23139 0.0013057 0.016111 0.25447 0.17421 -0.037183 -0.11457 -0.14607 0.24744 -0.24974 0.013562 0.29976 0.23433 -0.70664 -0.57311 -1.6067 0.76978 0.86084 0.26881 -0.15517 -0.44603 -0.34303 0.36974 0.9277 0.33715 0.81724 -0.47539 -0.11378 -0.62844 1.0811 0.76328
villa 0.28069 -0.17742 -0.062902 0.18977 -0.27384 0.98644 0.22361 0.55865 -0.19119 0.22625 0.90838 -0.50436 -0.41321 -0.23916 0.20854 0.19069 0.35486 0.33713 -0.071595 1.0688 0.35797 0.5838 0.14881 0.54214 -0.42561 -0.3255 -0.14854 -0.83741 -0.88095 -0.6468 -0.40448 -0.15399 -0.037064 0.051894 0.92021 0.76645 0.058557 0.49637 -0.29192 -0.41031 0.45331 -0.28932 0.66882 0.050615 1.4638 -0.032895 -0.14031 0.23732 0.99851 0.68845 0.29373 -0.19599 -0.21521 0.71197 -0.11291 -2.2102 -1.0707 -0.44726 -0.59329 0.057339 -0.70846 0.2304 -0.50866 -0.10246 -0.3897 0.11256 -0.17835 0.0035267 -0.82537 -0.34352 0.20975 0.47299 0.33513 -1.7789 0.43736 -0.47707 0.22112 0.31023 -0.57378 0.93042 0.22579 0.23085 -0.072265 -0.597 0.40004 -0.16853 -0.51723 0.61146 0.18479 -0.92484 -0.57982 -0.99184 0.45326 0.86451 -0.4797 -0.47859 -0.10182 0.45467 0.075332 -0.6749
robin -0.42962 0.17668 0.29193 -0.4379 -0.08482 -0.11967 0.2996 0.5321 -0.67319 -0.48319 -0.17396 -0.12702 -0.33916 0.58953 0.836 0.065704 0.095292 0.11992 -0.035751 0.51673 -0.17397 -0.16057 0.84538 0.17877 0.70548 0.073699 0.13029 -0.60917 0.25556 0.3933 -0.81264 -0.077823 0.005395 -0.61061 0.90985 -0.09514 0.0078497 0.38487 -0.16113 -0.04878 -0.04219 0.064595 -0.49598 0.14664 0.11856 -0.033141 -0.78109 -0.28967 -0.063219 0.10567 0.25361 0.097312 -0.084486 0.32842 0.45257 -1.6968 -0.067008 0.83945 -0.06464 0.83106 0.59418 0.15599 0.33946 0.06829 0.41819 -0.509 0.29903 1.7071 -0.47906 0.297 -0.29846 -0.4081 -0.72563 -0.61915 0.05911 0.38651 -0.22988 -0.60527 -0.13721 0.38474 -0.25891 0.57728 0.1741 -0.36098 -0.54165 -0.41789 -1.324 0.10409 0.2874 0.69075 -0.13532 -0.15993 0.28607 0.37807 0.23355 0.23515 0.074721 0.0088646 -0.52853 -0.60041
ferry -0.24552 -0.43164 -0.40347 -0.4415 0.10696 -0.6539 0.059301 0.69228 0.36529 -0.57099 0.36665 0.93574 0.17006 0.3536 0.22934 -0.78511 0.49482 -0.63803 -0.53251 0.65935 1.0305 -0.106 0.75261 -0.81006 0.46579 -0.3766 -1.3561 0.40407 0.38319 -0.13651 -0.45814 0.56095 -0.43528 0.29486 -0.30333 -0.4512 0.17814 0.6625 1.0349 0.03489 -0.4451 -0.39109 -0.17458 -0.060089 1.2274 1.1136 0.28177 -0.32657 0.90046 1.3371 0.13902 0.29751 0.2687 0.2653 -0.091234 -1.1927 -0.13886 0.15278 1.8094 0.35297 -0.99991 -0.41369 0.62746 -0.21171 -0.39507 0.62007 -0.31311 0.16138 -0.26831 -0.35041 -0.96561 -0.42491 0.82632 0.042847 0.9875 -0.076213 0.43659 0.72848 -0.23404 -0.42125 0.1055 -0.1513 0.38185 0.48789 0.059365 -0.71505 -0.14109 -0.49087 -0.80101 0.044335 0.047468 0.22783 0.16407 -0.49818 -0.34068 0.015481 0.17333 0.27848 0.78701 -0.38896
shirt 0.11302 0.51803 -0.61565 -1.0676 0.073314 1.3043 0.48389 0.27871 -0.72925 0.68157 0.064338 0.10232 0.50134 0.21441 0.54468 0.598 0.5183 -0.43937 0.95708 -1.2551 -0.0095884 0.24591 0.22313 -0.47584 0.7532 1.125 -0.42455 -0.96359 -0.015773 -1.153 0.40889 0.45397 -0.042271 -0.20526 -0.039573 0.61088 -0.63218 -0.13866 -0.075611 0.36929 0.69517 -0.55817 0.99852 -0.34625 -0.9853 -0.37073 -0.10729 1.0643 0.1181 -0.57402 -0.26172 0.010346 -0.15911 0.6767 -0.44276 -1.5283 -0.76978 0.00685 1.1274 0.4353 -0.052518 0.41473 -0.91849 0.53983 0.20158 0.018064 0.6732 0.031489 -0.10371 0.25679 0.51924 0.24578 -0.10057 -0.84918 0.23258 0.91185 0.53171 0.33597 0.0194 0.098713 0.080122 -1.1883 0.24104 -0.61467 -0.24387 -0.99959 -0.98502 0.12564 0.01506 0.97638 -0.035677 -0.10351 0.66104 -0.57024 -0.13921 0.011858 -0.6207 0.34717 -0.21519 -0.13249
root -0.66153 0.98105 -0.67136 -0.27728 -0.054963 -0.11834 -0.20933 -1.072 0.49115 0.48836 -0.091027 0.32234 0.38399 0.91533 -0.40308 0.15653 -0.036375 -0.49436 -0.34444 -0.28876 -0.45829 -0.453 -0.077761 -0.29181 -0.046438 0.70274 0.59847 -0.26204 0.18334 0.035917 0.1506 0.34662 0.95418 -0.34899 -0.011189 0.24624 -0.4537 -0.034665 0.53721 0.31229 -0.15475 -0.59178 -0.15575 -0.51854 0.05204 0.53409 0.012194 0.24355 -0.4547 -0.12215 -0.096259 0.021595 0.0039064 0.83163 -0.29944 -1.3518 -0.1307 -0.21462 1.0863 0.29288 0.34551 0.34487 -0.58732 -0.4532 0.99149 -0.091372 0.3368 -0.65861 0.63022 -0.56677 -0.42133 0.35046 -1.0827 -0.52736 0.53458 -0.51348 -0.60254 0.0080674 -0.52172 0.84247 -0.095133 -0.44451 -1.5075 0.092252 -0.60463 0.55132 -0.15966 0.16649 0.20511 0.63095 -0.84467 0.19602 -0.4941 0.23267 0.32376 -0.84995 0.17067 -0.64262 0.11539 0.71542
cat 0.23088 0.28283 0.6318 -0.59411 -0.58599 0.63255 0.24402 -0.14108 0.060815 -0.7898 -0.29102 0.14287 0.72274 0.20428 0.1407 0.98757 0.52533 0.097456 0.8822 0.51221 0.40204 0.21169 -0.013109 -0.71616 0.55387 1.1452 -0.88044 -0.50216 -0.22814 0.023885 0.1072 0.083739 0.55015 0.58479 0.75816 0.45706 -0.28001 0.25225 0.68965 -0.60972 0.19578 0.044209 -0.31136 -0.68826 -0.22721 0.46185 -0.77162 0.10208 0.55636 0.067417 -0.57207 0.23735 0.4717 0.82765 -0.29263 -1.3422 -0.099277 0.28139 0.41604 0.10583 0.62203 0.89496 -0.23446 0.51349 0.99379 1.1846 -0.16364 0.20653 0.73854 0.24059 -0.96473 0.13481 -0.0072484 0.33016 -0.12365 0.27191 -0.40951 0.021909 -0.6069 0.40755 0.19566 -0.41802 0.18636 -0.032652 -0.78571 -0.13847 0.044007 -0.084423 0.04911 0.24104 0.45273 -0.18682 0.46182 0.089068 -0.18185 -0.01523 -0.7368 -0.14532 0.15104 -0.71493
opener -0.12323 0.24781 1.1095 -0.88254 -0.53868 0.23658 0.64406 0.57224 -1.812 -0.57398 0.10226 -0.98298 0.1123 -0.19062 0.46065 0.075799 -0.53786 0.58968 -0.52347 0.21204 -0.047163 0.25116 0.30593 0.89997 1.2281 0.5302 -0.088053 0.75982 -0.27894 -0.22813 -0.47656 0.027465 -0.20257 0.061088 -0.085446 -0.65583 -0.74219 0.2001 -0.81223 0.13866 0.31342 -0.23481 0.82703 -0.82234 0.65276 -0.29683 0.69341 0.22308 0.27857 -0.13214 -0.34751 0.83349 -0.021442 -0.050572 -0.28378 -1.864 -1.3903 0.23099 0.5574 0.52817 -1.0975 -0.25327 0.32973 0.25381 -0.15094 -0.17463 0.53219 0.7884 -0.62147 -0.19119 0.1159 0.10619 -0.18755 -0.33606 0.082232 0.37944 -0.66537 -0.2166 0.074239 0.31765 0.17403 -0.34064 -0.50846 -0.12734 -0.30473 -0.33061 -0.28991 0.65733 -0.34735 0.67759 -0.55135 0.44876 0.60854 0.44536 -0.33871 0.38351 0.50535 0.71385 0.02485 -0.13579
grain -0.049019 0.63851 0.28969 -0.37666 -0.012943 -1.4915 -0.22344 -0.038937 -0.17755 0.15307 -0.82098 -0.15873 0.76323 0.46077 -0.12409 0.058134 0.087303 0.14583 -0.14963 -0.92035 0.19036 0.58991 0.072239 -0.49253 -0.23154 0.44403 -0.31884 -0.25798 -0.72048 0.48334 -0.63481 -0.2472 0.59739 -1.0191 -0.22841 0.6864 0.66709 0.20312 -0.13214 -0.23551 0.20142 -1.3482 -0.42112 -0.14969 0.9079 -0.13809 -0.29681 -1.3873 -0.45231 -0.66664 -0.44382 -0.042009 0.35549 0.71628 -0.13258 -0.26543 -0.44869 0.10142 1.4075 -0.45825 0.50832 -0.18448 -0.24053 0.30168 0.6912 -0.70245 0.18959 -0.50142 0.86172 -0.7935 -0.25371 -0.0093993 0.50661 0.42783 0.69793 0.081269 -0.28265 -0.040639 -0.85269 1.1298 0.42039 0.9096 -1.8056 0.2064 -0.18571 -0.41369 0.16978 -0.67815 -0.13832 0.55455 0.2021 0.3053 -0.51183 -0.52606 -1.0484 -0.96822 0.071328 -0.20015 0.69925 -0.026169
desk -0.029299 0.35153 1.458 -0.31499 0.225 0.243 -0.49623 0.65481 0.073124 0.14412 0.88379 -0.50502 0.22138 0.78448 -0.14468 -0.20189 0.53798 -0.28282 0.25341 -1.7436 -0.27968 0.57836 0.33474 -1.0905 1.0902 -0.21769 0.1126 0.023496 0.15981 -0.27757 0.57571 0.42604 0.35738 0.57786 -0.40561 1.0276 -0.62919 -0.80752 0.91291 -0.059219 0.39804 -0.47391 -0.25311 -0.67662 -0.17737 0.40231 -0.93991 0.15527 -0.47437 -0.3146 0.19466 -0.13464 -0.15641 1.0471 -0.24031 -1.3517 -0.46705 -0.19007 0.69319 0.19461 -0.76205 0.59505 -0.54978 -0.31553 -0.42652 -0.73875 0.4775 0.43488 0.92731 0.39335 -0.52279 0.46087 0.24393 -0.46804 0.45157 0.13567 -0.77566 0.6192 -0.49387 -0.62795 -0.17456 -0.18032 0.23455 -0.83389 -0.41869 -0.35358 0.33482 -0.85332 0.11429 -0.5743 0.64767 0.91299 1.6108 -0.127 0.051597 0.5562 0.6005 -0.18744 0.79543 0.64237
hat 0.01859 -0.090491 -0.059682 -1.0689 0.25482 0.56913 0.18811 0.052558 -0.61504 0.53431 -0.19746 -0.5283 0.15567 0.23942 0.33487 0.698 0.96596 0.63179 0.35591 -0.62668 -0.19547 0.48159 -0.47647 -0.57419 0.51522 1.0202 -0.65817 -0.42852 -0.47287 -1.3945 -0.23466 0.086995 0.33585 -0.2053 0.79849 0.36636 -0.64704 0.064048 0.10717 -0.34509 0.38262 0.042378 0.71278 -0.61902 -0.31577 -0.37924 0.39843 0.41419 0.033705 0.067505 -0.50975 0.4757 0.20228 0.724 -0.56274 -1.8785 -0.32211 1.0413 0.64126 0.64422 0.30365 0.3365 -0.46265 0.64864 -0.30115 0.15433 0.15241 -0.078862 -0.12816 0.15598 -0.38592 0.56085 -0.099501 -0.52352 0.11843 0.23304 -0.78828 0.10288 0.12233 0.5786 0.33024 0.019944 -0.30121 -0.67159 -0.66061 -0.6811 -0.66696 0.13032 0.38373 0.77879 0.36057 -0.3596 0.51147 -0.3831 -0.29151 -0.45803 -0.6241 0.036626 -0.11412 -0.74374
furniture -0.039057 0.6263 -0.15051 0.1107 0.51764 -0.28992 -0.11544 0.025825 0.30686 0.45114 0.49262 -1.215 0.082613 0.62739 -0.088166 0.51544 -0.0013946 0.65572 -0.18792 -0.38668 -0.053366 0.21638 1.2863 -0.43588 0.6077 -0.82951 -0.55102 -0.65125 -0.85653 -0.86472 -0.021231 -0.40979 -0.3502 -0.10954 -0.52488 0.42604 0.30014 -0.29369 0.45747 -1.177 0.66778 -0.42957 -0.014055 -0.41365 -0.2995 0.15761 -0.47962 0.58868 0.68408 -0.80809 0.22556 -0.37096 -0.17294 -0.22399 0.041448 -0.68046 -0.98785 0.54792 1.3213 0.12783 0.2945 0.59243 -0.23608 1.104 -0.2274 -0.52608 1.3019 0.032853 -0.11359 -0.8479 0.00067372 0.5504 0.67685 -0.17388 0.64329 0.29179 -0.23508 0.68914 -0.38023 0.27887 0.26931 0.089775 0.21343 0.61983 0.050761 -0.63524 -0.29776 -0.80769 -0.51462 -0.678 0.94816 -0.93786 1.3114 -0.43321 -0.83604 -0.62074 -0.27357 -0.41472 1.8548 -0.12525
eagle 0.14804 -0.73517 0.18489 -0.1354 0.44248 -0.21856 0.13677 -0.41135 -1.0976 -0.61095 0.12922 0.30442 0.13611 0.30299 0.21108 0.014528 0.60151 -0.06086 -0.049744 -0.063286 -0.040335 0.52373 -1.2209 0.53016 0.93073 0.72648 -0.45498 -0.10123 -0.27131 -0.4825 -0.3315 0.32011 0.40652 0.032205 0.60969 0.10925 -0.89431 0.52856 1.1142 0.46922 -0.47274 0.52841 -0.49492 0.77231 0.13459 0.24898 0.31614 0.25661 -0.66305 -0.12503 -1.3364 0.17884 -0.32433 0.56577 -0.25321 -1.5523 0.093222 0.021419 1.7271 0.24759 0.44665 0.71193 0.46687 0.96065 -0.33141 -0.73373 -0.31425 0.07283 -0.51399 0.30981 -0.28211 -0.23631 -0.027368 0.049798 0.18584 -0.099715 -0.24333 0.49574 -0.67869 0.35636 -0.21044 -0.2553 0.20357 0.0064801 0.31031 -0.74249 0.41482 -0.48117 1.1137 1.2339 -0.27955 -0.89325 0.12014 -0.021204 -1.2009 -0.30602 -0.53999 -0.74363 0.32428 -0.30826
rifle -0.10544 0.16762 -0.4052 -0.30043 -0.0094031 0.15563 0.99849 0.7489 -0.70023 0.64269 0.30628 -0.46085 -0.012131 -0.45434 0.057478 0.76962 -0.070914 -0.45445 -1.3355 -1.5453 0.7881 -0.10113 0.3584 0.055082 0.1563 0.50511 -0.91539 -0.2225 0.27435 0.4103 0.48658 0.75028 -0.72494 -0.17016 1.1116 -1.0152 -0.65316 -0.2465 0.77753 0.13922 0.59201 -0.018495 0.16954 -0.37742 0.079167 -0.50824 0.50772 0.026041 -0.86096 -0.91452 -0.23076 0.32532 -0.11732 0.74143 0.40308 -0.79155 0.029564 -0.24731 0.91653 0.18221 0.77184 0.96114 0.52365 2.4797 -0.32591 -0.39234 0.21831 -0.2221 -0.36293 1.0606 0.43766 -0.80634 1.4039 -0.076607 0.045549 0.49009 0.15976 -0.22187 -1.1452 -0.44795 0.65762 0.0090189 0.5072 -0.50643 0.0084021 -0.52207 -0.61629 -0.40217 0.89277 0.4278 -0.35869 0.081675 0.79221 0.33582 0.058723 -0.46223 -0.49952 0.083314 0.91608 -0.040285
bull 0.70637 -0.17369 -0.026774 -0.59136 -0.2632 0.012874 -0.070645 -0.35611 -0.26435 -1.8096 -0.48133 0.56868 0.42267 -0.028756 -0.2869 0.90847 0.20179 0.11058 0.24963 0.35501 0.38711 -0.034597 -0.624 0.31495 0.22922 0.39614 -0.91846 0.22049 0.090879 0.38784 0.0051792 -0.45197 0.12013 0.35548 0.394 0.28246 -0.39339 0.58375 1.0209 0.47056 0.49017 -0.53704 0.12029 -0.56243 -0.40222 0.057731 0.54687 -0.57941 -0.16338 -0.50474 -0.60938 -0.12558 -0.75645 0.43425 -0.31549 -1.8021 -1.0862 0.75962 0.47356 -0.17434 0.79246 0.084475 0.053941 0.76035 0.56468 0.53936 -0.14723 -0.45047 0.47358 0.19137 -0.010771 -0.22077 -0.40858 0.17004 -0.40531 -0.26623 -0.085666 -0.13097 -0.82995 -0.58159 0.90023 -0.23267 -0.50252 0.62379 -0.049416 0.045887 -0.54708 -0.53138 0.74748 0.056668 -0.78229 -0.4695 0.020015 0.48908 -0.173 -0.42599 -0.71666 -0.0023154 0.11153 -0.17542
craft -0.22825 0.11908 -0.61551 -0.00030014 -0.12805 -0.61826 0.60319 -0.21851 -0.040299 0.33394 -0.098164 -0.45586 0.15742 -0.066093 -0.79948 -0.644 0.79221 0.40818 -0.23299 0.30868 0.69298 -0.18547 0.45557 -1.2983 0.64099 0.28254 -0.84807 0.25865 -0.43155 -0.12269 -1.1067 0.3592 -0.23157 -0.24626 0.50714 -0.053066 0.11239 -0.13434 0.36959 -0.25231 -0.89093 -0.64679 -0.26831 0.45598 0.044761 -0.068555 -0.83351 -0.045541 0.47946 0.28519 0.15154 0.60501 -0.18654 0.833 0.56334 -1.2067 0.38418 0.016101 1.4336 0.54047 0.19404 1.0562 0.22523 1.0062 -0.60859 0.2656 -0.20543 -0.13504 -0.1617 -0.56925 0.0024247 -0.47519 0.31956 0.0074853 -0.028678 0.093986 -0.26803 -0.12113 -0.8971 -0.097431 -0.72284 0.21606 0.091305 0.2216 -0.50105 -0.26803 0.94378 -0.3895 -0.19356 -0.41717 0.31457 0.066314 0.36282 -0.1218 -0.20783 0.10418 -0.73946 -0.28724 0.90017 0.071325
instrument -0.54429 0.66048 0.25308 0.55909 0.35206 0.0021715 0.12093 -0.56778 -0.25729 0.16009 -0.12362 -0.85979 -0.11396 0.56295 0.016708 -0.088791 0.36066 0.36715 0.59866 -0.32282 -0.66707 -0.60346 0.28515 -0.71648 0.47186 -0.20997 -0.65269 0.30688 -0.043052 -0.00016228 -0.23602 0.32199 -0.2648 0.58401 -0.15526 -0.24796 0.46577 -0.20873 0.77105 -1.3152 -0.11338 0.076613 0.42834 0.26582 -0.5729 -0.40276 0.59865 -0.024803 -0.65202 -0.74598 -0.42839 0.65181 0.25449 0.52811 0.13158 -1.2164 -0.029912 -0.22506 1.3554 0.86965 0.65609 0.23568 -0.25899 0.73477 -0.37026 -0.50183 -0.12547 0.088692 -0.010668 -0.40874 -0.53523 -0.062507 0.84466 0.26578 0.16612 -0.63492 -0.28695 -0.03308 0.16243 -0.31487 0.18457 -0.2076 -0.063579 -0.21654 -1.424 0.41492 0.90841 -0.39237 0.011597 -0.18119 -0.37421 0.11899 0.16961 0.16329 0.49594 0.46957 -1.1322 -1.0077 0.56623 -0.41277
cow 0.76708 0.3505 0.75376 -0.34011 -0.47713 -0.5259 0.065616 -0.053002 0.67318 -0.91912 -1.3414 0.98514 0.78742 0.59054 0.53015 1.4222 0.39535 0.15914 -0.3214 -0.33548 0.22837 0.4542 -0.06391 -0.70626 0.27056 1.0572 -0.16259 0.17632 -0.42856 0.9917 0.42758 0.14584 0.81237 -0.15099 0.26404 0.059395 -0.50134 0.15869 -0.4296 -0.34954 -0.037675 -0.24415 -0.36093 -0.84441 0.30814 0.40281 0.21374 -0.44334 -0.1989 -0.78013 0.2029 -0.20818 0.043084 0.33345 -1.318 -1.0969 -1.027 0.4106 0.46054 -0.078223 1.2097 0.84126 0.78565 0.3111 0.90638 0.92627 -0.5595 -0.59764 0.3981 -0.4577 -0.53907 0.3544 -0.40554 0.45922 0.15614 0.3114 0.322 -0.063417 -0.92101 0.20918 0.63238 0.24459 -0.23016 0.46773 -0.83209 -0.049594 0.33872 0.57096 -0.057898 0.62888 -0.34035 -0.43638 -0.38775 -0.0019503 -0.64405 -0.57104 -0.18454 -0.32044 0.5027 -1.1846
oak -0.52352 1.2297 -0.019555 -0.064999 0.32419 -0.03985 -0.5092 0.68735 -0.13499 -0.12438 -0.0099271 0.20939 0.59821 0.4127 -0.27769 0.57364 0.77905 -0.42899 0.0063358 0.00086256 -1.0703 0.32044 0.11517 -0.10263 0.775 0.73723 -0.21555 -0.18764 -0.23327 -0.31572 0.3278 0.27557 0.48682 -0.29368 0.39037 0.64917 0.066444 0.44975 0.9711 0.15938 -0.18253 -0.59991 -0.6405 -0.2312 0.84078 0.2302 0.19081 0.5197 -0.61102 -0.18445 -0.32791 -1.3851 -0.74182 -0.13895 0.26053 -1.4875 -0.50304 -0.60808 0.85921 -0.80412 0.24711 0.98769 0.21239 -0.15815 -0.60559 -1.2558 0.6183 0.38609 -0.073005 -0.4848 -0.23637 0.30214 0.38105 -0.51066 -0.1568 -0.18435 0.60496 0.35209 -0.035224 -0.1292 0.096625 -0.0017148 -0.60939 0.83872 0.73858 0.0077141 0.39191 -0.83695 0.59274 1.0359 -0.94974 -1.0713 -0.64975 1.5498 -1.192 -0.2829 -0.507 -0.61084 0.82653 -0.42898
coat -0.43847 0.18503 -0.086006 -0.3658 0.13956 0.7672 0.23088 0.48014 -0.93015 0.76033 -0.67451 0.135 1.1433 0.96548 0.20222 0.65519 0.62914 -0.33882 0.65656 -1.3096 -0.78004 0.1783 -0.18484 -0.7829 0.22348 0.76976 -0.43127 -0.95076 -0.14197 -0.81897 0.25576 0.087255 -0.11063 -0.15028 0.20045 0.57388 0.40263 -0.20373 0.53057 0.16783 0.67088 -1.5202 -0.063249 -0.87932 -0.51618 -0.19273 -0.14767 0.21402 -0.19549 -0.33609 -0.21224 0.72289 0.061353 1.2296 -0.83436 -1.1161 -0.24248 0.23152 0.65823 0.23864 0.41902 0.75758 -0.19254 1.2036 1.171 -0.27556 0.26298 -0.13781 -0.12612 0.06653 -0.22394 -0.34656 0.53837 0.21826 0.81795 0.36858 -0.23676 -0.13643 0.049329 0.39326 -0.54146 -0.14019 -0.09226 -0.070189 0.10418 -0.74055 -0.70886 -0.13462 0.7138 0.56005 0.23187 -0.51172 0.2729 -0.62484 -0.23674 -0.54798 -0.30999 -0.21663 -0.030449 -0.33977
lion 0.19713 0.43847 0.3363 -0.30903 0.51632 0.36911 -0.77066 -0.26882 -0.84738 -1.1849 -0.52657 0.42716 0.31811 0.12596 -0.42878 0.57082 0.098343 -0.28419 -0.10815 0.52569 0.24329 -0.57011 -0.59246 -0.079165 0.56696 0.95197 -0.51655 0.24623 -0.034456 -0.48879 0.4773 -0.38298 0.34114 0.12379 0.72175 0.35767 -0.21807 0.85154 0.34198 0.00091585 0.71398 0.35306 -0.42911 0.077116 0.55031 0.83248 -0.56847 -0.11818 -0.13059 -0.21793 -0.80428 0.32947 0.22659 0.99647 -0.89859 -1.7248 -0.55854 0.18703 0.15013 -0.54897 0.7418 0.32988 -0.61525 0.59511 0.21116 0.6672 -0.069245 -0.040357 0.063197 0.73402 -0.0014801 -0.75396 -0.14958 0.51955 -0.3527 -0.73562 -0.78484 0.17187 -0.88516 0.12707 -0.31296 0.024407 0.34288 0.37003 -0.28288 -0.24337 -0.25821 -0.90589 0.86156 0.45543 0.68009 -1.0719 0.64673 -0.029413 -0.55408 -0.16071 -0.90211 0.080824 0.76018 -0.47588
pet 0.081222 0.33583 0.74818 -0.65232 -0.41899 0.41654 0.16879 0.18396 0.62417 -0.23767 -0.46752 -0.5862 0.52779 -0.13605 0.1071 0.74038 0.85852 0.56138 0.45317 0.3186 0.46484 0.20925 -0.3692 -0.46554 -0.35507 1.1869 -0.51706 -0.53697 -0.73807 0.5347 0.021835 0.61407 0.24069 0.74707 0.29499 1.0299 -0.28535 0.12747 0.022458 -0.74565 0.62097 -0.36046 -0.05178 -0.6662 -0.42734 0.73209 -1.1587 0.52476 -0.34221 -0.3228 0.1526 -0.040883 -0.14341 0.30638 -0.39265 -0.7595 -0.12715 0.0086659 0.6754 -0.065256 0.69389 0.46639 0.74317 0.1947 0.88187 0.83787 -0.29548 -0.11058 0.69141 -0.56983 -1.0734 0.39439 -0.0241 0.27129 -0.96911 0.49535 0.096007 -0.035067 -1.0227 0.34402 0.59438 0.23003 0.62883 -0.0049869 -1.2148 -0.056739 0.39241 0.19679 -0.62921 -0.27251 0.29553 0.33186 0.65312 -0.19836 -0.86246 -0.23211 -0.66666 -0.19539 0.811 -0.89832
bottle -0.5597 0.32656 0.20238 -0.13525 0.044455 1.2508 1.2972 0.38405 -0.16632 -0.21345 -0.37939 -0.00062312 -0.51358 0.95452 -0.24795 0.15429 0.16491 0.069469 0.073572 -0.38183 0.091174 0.038599 -0.97674 -0.086523 0.58005 0.82386 -0.71676 -0.47839 -0.35058 -0.63727 0.57482 0.35811 0.25045 -0.19416 0.11817 0.20644 0.16958 0.083327 0.57884 -0.8001 0.60846 -0.72927 0.3743 -1.0608 0.099589 0.79163 -0.67854 -0.21222 -0.67857 -0.63339 0.66279 0.29727 -0.44009 0.71848 -0.64196 -1.5724 -1.1479 0.4786 0.70412 -0.4995 0.74404 0.36586 -0.42939 1.2962 -0.34504 -0.071756 0.85198 -1.0973 -0.27123 -0.95542 0.50865 0.42467 0.52419 0.43223 -0.43668 0.3443 0.36663 -0.664 -0.64077 0.1373 0.20352 -0.36436 -0.41809 -0.00023578 -0.17905 -0.49481 0.28242 -0.253 -0.3624 0.31192 -0.00012711 0.1764 -0.23844 -0.82242 -0.23815 0.13702 -0.58235 0.61444 0.59077 -0.036643
commodity 0.42898 0.96099 0.3363 -0.65312 0.45018 -2.0904 -0.75843 -0.54749 -0.0047369 -0.55436 -0.46837 -0.21955 0.013346 -0.41911 -0.21896 0.50976 -0.45189 0.1117 0.34348 -0.53643 0.51308 -0.13309 0.53109 0.039054 0.096206 0.082128 0.25724 -0.48556 -0.85951 0.77822 -0.22899 -0.002365 -0.59645 -0.15758 -0.51968 0.17071 0.23899 0.19215 -0.067674 -0.96756 0.31732 -0.86616 -0.21901 -0.48089 0.55824 0.37604 -0.32782 0.00055028 -0.36351 -1.6751 -0.093963 0.10497 0.5595 0.024597 0.063045 -0.38458 -0.23443 -0.091888 1.2781 -0.082961 -0.44758 -0.35285 -0.72533 0.52175 0.27436 -0.82292 0.50163 -0.43618 1.5194 -0.21405 -0.6484 -0.18749 0.045548 0.51178 -0.14333 -0.78042 -0.37114 -0.23488 -0.5591 -0.15399 1.1785 0.97596 -0.75606 -0.49787 -0.062869 -0.33271 -0.19234 -0.31162 -0.145 -0.62888 -0.12415 -0.096232 0.31403 -0.47965 -0.35004 0.44886 0.29336 0.077955 0.35285 0.88483
knife -0.59898 -0.03565 -0.96956 -0.066225 -0.25119 0.57552 0.54489 0.4617 0.81154 0.18082 -0.61143 0.38205 0.0056623 1.2144 0.19853 1.174 -0.32289 -0.60678 -0.6416 -0.49629 0.85694 -0.36452 -0.52416 -0.23606 0.77468 0.84659 -0.79667 -0.68515 -0.5853 -0.34419 0.098424 0.59841 -0.44223 -0.095478 0.12169 -0.72457 -0.022199 -0.58789 1.1908 -0.55866 -0.12875 -0.7058 0.029056 -0.58817 -0.94747 0.34067 -0.2213 0.015103 -0.47418 0.31787 -0.54997 -0.0064764 -0.18968 1.5958 -0.13595 -1.2729 0.015152 -0.34481 0.67478 0.48755 0.86228 1.0395 -0.50386 0.89771 -0.062123 -0.69408 0.33393 0.056964 -0.15194 0.62383 -0.45967 0.14929 0.67475 0.93219 -0.13719 0.43003 -0.44504 -0.11719 0.49876 0.32399 0.396 0.44302 -0.43252 -0.42706 -0.50663 -1.2195 0.13423 0.41242 -0.084536 0.12196 0.077046 0.18673 0.38374 0.39376 -0.061862 -0.73387 0.21241 -0.0092297 1.1222 -0.4408
motorcycle 0.64287 -0.49375 0.12545 -0.37911 0.011446 0.18042 0.33649 0.90272 0.10091 0.11301 0.12516 -0.090322 0.51694 -0.11741 -0.84411 1.0002 0.64228 0.16088 0.020382 -0.11039 1.5681 -0.78223 0.15042 0.0044719 0.5201 0.0092977 -0.86551 -0.60292 0.31435 -0.2209 -0.8481 -0.14292 -0.53626 -0.085599 0.35877 0.36932 0.08234 0.32567 0.6017 0.86481 0.42432 0.52331 0.91032 -0.20254 -0.1617 -0.046871 0.6283 0.11655 0.23891 -0.69907 -1.0854 0.16108 -0.42053 0.39245 0.46643 -0.64627 -0.91934 1.5103 1.2423 0.65115 0.56716 0.83529 0.093448 1.117 -0.0071043 0.26693 -0.13046 -0.58641 0.31814 0.54261 -0.54636 -0.30662 -0.010179 -0.1817 -0.26132 0.30228 1.1928 -0.17218 -0.66519 -0.62773 0.29446 0.26278 0.1449 -0.11253 0.19706 -0.12193 -0.6601 -0.45464 -0.5473 -0.16219 0.086547 -0.85536 0.37649 -0.1046 0.26604 0.1292 -0.22455 0.29415 1.5822 -0.79191
pine -1.214 0.64341 0.18556 0.053239 -0.17216 -0.069714 -0.35669 0.30954 -0.093941 -0.74504 -0.0079717 0.18395 0.15339 0.85622 0.038225 0.22129 1.1494 -0.28853 -0.44659 0.031191 -0.56566 0.61694 0.45046 0.34072 0.35502 0.53532 0.29305 -0.45508 -0.72289 -0.34626 0.042231 0.52041 0.56146 -0.51699 0.024537 0.38253 -0.2336 0.13839 1.562 0.35778 -0.51213 -0.66175 -0.16919 0.40841 0.37866 0.15296 0.71433 0.77462 -0.2829 0.058944 -0.62332 -0.77742 -0.34837 0.32353 0.060265 -1.4031 -0.18842 -0.21269 0.91768 -0.34751 0.47837 1.049 0.097975 -0.28166 -0.6661 -1.0067 1.0116 -0.0077783 0.26234 -0.82159 -0.73612 0.16162 0.53412 -0.29146 0.017361 0.12212 0.13834 0.59044 0.26589 1.2096 -0.14473 -0.27308 -0.63314 0.23118 0.68083 -0.2534 0.34524 -0.51191 0.66403 1.2145 -0.21836 -0.93242 -1.0276 0.49738 -1.107 -0.55705 -0.48096 -0.34153 0.79776 -0.36469
airplane -0.16905 0.27387 0.56794 0.0019879 -0.12258 -0.47564 0.53575 0.053408 0.33973 0.39381 0.53866 -0.079248 0.21101 0.39848 -0.24034 -0.21135 0.24204 0.755 0.87943 0.0076776 0.22761 0.13173 0.24464 -0.79466 0.53546 -0.13146 -1.0728 0.33607 0.14914 -0.18328 -0.27835 0.22114 -0.0086374 0.71159 -0.37257 0.92297 0.6715 0.46155 1.0223 0.033371 -0.42123 -0.25116 0.23897 0.29825 0.19633 0.47368 0.11481 -0.24439 -0.45919 -0.27042 -0.31669 0.57177 -0.29423 0.81875 0.44011 -0.77701 0.080021 0.84484 2.2236 0.29603 0.26407 0.89465 0.33492 0.46542 -0.42811 -0.32176 0.066258 -0.10479 -0.73056 0.38247 -0.64507 -1.0068 0.095788 -0.22178 0.37206 0.1436 0.54153 -0.037319 -0.8034 0.49769 -0.4854 0.096025 0.17554 0.22751 -0.63573 -0.76998 0.68933 -0.67634 -0.84612 -0.188 0.28685 0.020765 0.41986 -0.037801 0.063915 0.41061 -0.19975 0.010633 0.56534 -0.96648
sheep 0.12728 0.33918 0.047297 -0.59545 -0.50807 -0.1497 0.30002 0.28764 -0.45 -0.98081 -1.3502 0.64971 0.7544 -0.23777 0.80742 0.59327 0.41876 0.070505 0.026816 0.2541 0.72081 0.39636 0.7526 -0.94346 0.61644 0.6186 -0.67133 -0.091559 -0.3541 0.65173 -0.049964 -0.12267 0.20019 -0.097971 0.25479 0.26575 -0.23218 0.53218 -0.055243 -0.252 0.31309 -0.07482 -0.045389 -0.30998 -0.20094 -0.10533 0.55923 -0.25827 -0.54868 -0.57999 -0.67253 -0.034722 0.27119 0.82289 -0.71094 0.02069 -1.1679 0.039353 0.12002 -0.31662 1.4502 0.91076 1.1657 -0.21669 1.3254 0.8902 -0.43057 -0.77069 0.90518 -0.38127 -0.28038 0.35435 0.22964 -0.21386 0.32834 0.14031 0.076089 0.74345 -0.3713 0.52666 0.6998 0.64682 -0.51838 0.30539 -0.67797 -0.3944 0.31669 0.2097 0.46173 0.64263 -0.1257 -0.82134 0.37247 -0.39669 -1.2945 -0.73274 -0.72885 0.26961 0.74588 -0.80255
salmon -0.74905 0.16632 0.39634 -0.18984 0.18941 -0.99934 0.89901 -0.47419 -0.076166 -1.349 -0.91048 0.97923 0.32898 0.28741 -0.23939 -0.18726 0.45148 -0.47199 -0.27454 0.71506 -0.14916 0.50497 0.76215 -0.14762 0.69452 1.439 -1.0581 -0.59879 -0.79252 -0.21376 -0.3137 0.5116 -0.0020436 0.17802 0.19967 0.26363 -0.44049 0.67858 0.50541 -0.22594 0.48622 -1.0896 -0.7876 -0.12868 0.94281 0.29954 -0.37585 -1.1832 -0.46759 0.27907 0.15489 0.2632 -0.13873 0.16439 -1.0361 -0.87041 0.38621 -0.38302 0.76612 1.1396 -0.43962 0.20036 0.78387 -0.26372 0.78752 0.23188 0.25448 -0.50202 0.34218 -0.50121 0.037146 0.19103 0.01046 0.1035 0.025862 0.12945 -1.6259 -0.083057 0.52743 0.58241 -0.038181 -0.30306 -0.37343 0.3127 0.25092 -0.34849 0.47895 -0.097018 0.034938 0.020561 -0.043726 -0.93779 -0.87393 -0.76325 -1.3343 -0.09012 -0.59819 0.38005 0.39361 -0.16359
grenade -0.73016 0.35705 -0.30834 -0.21143 -0.15044 1.2839 0.9038 -0.08102 0.80094 1.2105 0.34192 0.19827 0.58163 1.3409 0.20106 0.53028 -0.65528 -0.087802 -0.83079 -0.29325 1.362 -1.0243 0.19225 0.19709 0.33382 0.43201 -0.43865 0.47444 0.22779 0.50396 0.063959 -0.026421 -0.283 0.54229 0.80396 -1.2387 0.23382 -0.46838 0.76932 0.24487 -0.38077 0.24915 0.76609 -0.39211 0.19316 -0.2578 -0.22334 0.51079 -1.2858 -0.41081 -0.45094 0.88412 0.16959 0.64507 -0.034659 -0.98921 -0.2167 -0.01073 0.77602 0.7455 -0.17895 0.77034 0.26093 1.5755 -0.97768 -0.11289 0.4272 -0.87639 -0.57656 0.52686 -0.13191 -0.3801 0.84727 -0.47848 -0.7459 0.24799 0.69224 0.055432 -1.1777 0.35107 0.99927 0.10848 0.089158 -0.91139 0.31957 -0.57433 0.19364 0.0096551 -0.43984 -0.22901 0.84187 0.34664 -0.087643 0.22904 0.15859 0.53839 0.10382 0.54762 0.72787 -0.39667
hammer 0.2872 0.057117 -0.53874 -0.18754 0.21507 -0.95858 -0.29485 -0.3394 -0.45968 -0.029484 0.20765 -0.22877 0.070634 0.92026 -0.72035 0.77768 0.099775 -0.10456 -0.97179 -1.0122 0.42857 -0.13651 0.20588 0.15663 0.47257 0.37955 -0.62171 -0.1133 0.25372 -0.30776 -0.11756 -0.001879 -0.2135 0.31117 -0.044939 -0.65943 0.25188 -0.48452 0.47081 -0.18646 -0.22559 0.5429 -0.37356 -0.41498 -0.63803 -0.051673 -0.44172 -0.14183 -0.43803 -0.056464 -0.092426 0.12701 0.2006 0.66092 0.0023568 -1.7856 -0.070486 0.59184 0.0050671 0.27938 0.74678 0.58523 -0.8855 0.83448 0.10011 -0.3481 0.1266 0.77386 -0.51223 -0.64313 -0.0066853 -0.16397 -0.30402 0.38545 0.19018 0.28184 -0.38432 -0.6191 -0.21 -0.0070742 -0.0055666 0.064652 -0.01176 -0.98979 -0.10693 0.13804 0.099683 0.2761 0.13574 0.13171 0.12834 0.12762 -0.12147 0.14244 0.11526 -0.62376 -0.37326 0.45306 1.108 -0.1986
deer -0.33594 -0.27655 0.26386 -0.5113 -0.28561 -0.59263 0.057329 0.66589 0.32683 -1.5157 -0.84416 0.052872 1.1483 0.051431 1.2173 1.1396 -0.18651 0.49496 -0.27927 0.15856 0.045714 0.87868 0.24541 -0.21075 0.48721 0.91788 -0.75391 -0.47284 -1.028 -0.13911 -0.12492 -0.057052 0.26169 0.86851 0.47948 -0.13416 -0.50211 0.73102 0.8246 0.11696 0.17171 -0.11135 -0.67694 0.048479 0.082756 0.4169 0.93362 0.06136 -0.66905 -0.1706 -1.1357 -0.63467 0.093066 0.62526 -0.85007 -0.56128 -0.038139 0.13692 0.5036 -0.54752 0.15884 1.0395 0.96834 0.35551 1.3731 1.056 0.087833 -0.72203 0.15738 0.9385 -0.69237 -0.40421 0.054963 -0.11902 -0.39578 -0.26621 -0.80416 -0.017958 -0.5246 0.32494 0.84693 0.081349 -0.22304 -0.77255 0.032262 0.38905 -0.17196 0.013546 1.0561 1.3008 -0.49195 -1.1964 0.49368 -0.23243 -1.4027 -0.95825 -0.95878 -0.092414 0.73269 -0.75699
moth -1.0736 -0.51205 0.80983 0.031378 -0.30343 0.33078 1.0814 -0.48323 -1.4025 -0.11138 -0.78608 0.17204 0.75131 0.75702 0.21031 1.0438 -0.47619 0.132 1.0867 0.48364 -0.83736 0.49204 -0.06869 0.8922 0.9693 1.1185 -0.027633 0.71151 -0.0030992 0.26018 -0.44926 -0.094793 1.235 0.19624 0.9295 1.16 0.68789 -0.1809 0.92062 0.37315 -0.94248 -0.070531 0.098774 -0.24301 0.31894 -0.36051 -0.27679 0.45965 -0.52756 0.37063 -0.47846 -0.09979 0.095825 0.047961 -0.83807 0.25493 -1.2599 -0.5113 0.71563 -0.22303 0.4024 1.1329 0.046408 0.49848 0.43907 -0.098242 -0.57496 -1.041 -0.12036 -0.049745 -0.18921 -0.63581 -0.36701 0.57701 0.17524 -0.69177 -0.2832 -0.41872 -1.1705 1.0982 -1.4478 -0.6492 -0.5072 0.69864 0.46338 -0.12084 0.06869 -1.2037 0.49695 0.12237 -0.0025311 -0.38957 1.0384 -0.64917 0.38425 -0.26881 -1.5203 -0.31788 0.40355 -0.48066
container -0.53691 0.75403 -0.17696 -0.7852 0.60943 -0.37926 0.14557 0.3015 0.65837 0.75382 0.48499 0.16738 -0.0014981 0.20951 -0.13026 -0.52817 1.05 -0.022706 0.052769 -0.83676 0.20459 0.046919 -0.65499 -0.90565 0.66859 0.14865 -0.29753 -0.097838 -0.33528 0.19655 -0.65541 0.1225 0.20241 -0.48363 0.39642 0.43591 0.76766 0.35572 0.33537 -0.94622 0.38677 -1.9475 0.38365 -0.22641 1.2714 1.0482 -0.25872 0.1757 0.16909 0.19137 0.71686 0.30572 0.44394 0.99492 -0.39012 -0.32416 -0.51212 0.18436 1.9772 0.36626 -0.55893 -0.24723 -0.15982 0.37794 -0.43566 0.2984 0.06251 0.34564 0.17624 -0.45613 -0.48603 0.013189 1.3394 0.13604 0.11203 0.64447 0.61835 -0.64059 0.0018281 0.47992 0.67008 -0.18922 -0.62029 1.7233 -0.019753 -0.42511 0.78963 -0.88045 -0.32861 0.52335 0.24079 0.70806 -0.063399 -0.71556 0.59469 0.32397 0.2783 -0.19433 0.73652 -0.15364
jacket -0.56571 0.10531 0.33735 -0.53618 0.38384 0.6183 0.83152 0.45505 -0.70729 0.57993 0.036655 0.22178 0.30446 0.4519 0.51488 0.41423 0.49724 -0.61685 0.69438 -1.5288 0.0064925 -0.20458 -0.08334 -0.43909 0.98079 0.92262 -0.99104 -1.4146 -0.2108 -1.2479 0.15514 0.062322 -0.29364 -0.23457 0.14654 0.84512 -0.35526 0.22167 0.27923 0.44881 0.60797 -0.48149 0.5678 -0.14535 -1.0322 -0.70283 -0.017959 0.5779 0.49321 -0.77552 0.092406 0.5572 -0.066641 0.90886 -0.3325 -1.2964 0.056288 0.4056 0.92706 0.54278 -0.00082259 0.965 -0.50606 0.83612 0.21056 -0.66467 0.7647 -0.19121 -0.19102 0.31346 0.1477 -0.096551 -0.062611 -0.092771 0.010748 0.98719 0.52872 0.143 0.40392 0.14483 -0.30971 -0.46769 0.58409 -0.75559 -0.027634 -0.48409 -0.45313 -0.3753 -0.040072 0.86168 0.47287 -0.36561 0.81216 -0.8548 0.42052 0.15746 -0.64907 0.13816 -0.26871 -0.064557
tanker 0.30256 0.52217 0.44631 -0.9919 0.00341 -1.1931 0.38323 -0.13772 0.6749 1.0934 0.92248 0.44142 0.37485 -0.604 -0.66009 -0.90449 0.37484 -0.31374 0.6171 0.58744 0.6639 -0.28279 0.27767 -0.51326 0.43138 0.12031 -1.6201 0.87823 0.063265 0.33795 -0.35671 0.15159 -0.5077 0.099441 0.26875 -0.13293 0.55554 0.49726 0.58825 0.59957 0.051453 -0.86625 -0.020253 -0.19051 1.8081 0.70447 -0.54816 -0.52026 -0.36119 0.41344 0.18057 1.0329 0.043192 1.5442 -0.34293 -0.45673 -0.47195 -0.11053 1.4122 0.3494 -0.11236 0.077567 0.1686 0.18686 -0.13597 0.6724 -0.50606 0.06718 -0.72352 -0.083416 -0.28386 -0.38931 0.69048 0.020762 0.04352 0.6393 0.69738 -0.32064 -1.0594 0.27242 0.20261 -0.4858 -0.029768 0.77715 0.77916 -0.8605 0.31201 -0.52725 -0.48712 -1.0068 0.23704 0.19771 -0.88475 -0.33836 0.38601 0.70716 -0.27215 0.5719 0.19358 -0.39109
butterfly 0.49737 0.71041 0.62622 0.13651 0.39824 0.70369 -0.089949 0.18276 -1.5742 -0.58217 -0.09959 0.94017 -0.11195 -0.10148 -1.1172 0.92057 0.094518 0.37056 0.57201 -0.8505 0.16109 0.80721 0.95681 0.79543 0.8766 1.3019 0.042907 -0.10811 0.19839 -0.045266 -0.75811 0.044164 0.98132 0.56831 0.72539 0.14175 -0.25478 0.89864 -0.1429 0.16204 -0.61999 -0.70725 -0.31841 -0.060558 0.38161 -0.27458 -0.10665 -0.20286 -0.59331 -0.29421 -0.4867 0.14989 0.50062 0.29525 -0.19614 -0.9089 0.23718 0.77208 0.23134 0.083307 -0.53844 0.72377 0.96152 1.1293 1.0425 -0.22537 -0.15698 -0.25861 0.86415 -0.54242 -0.72612 -0.15736 -0.080078 0.48082 0.46471 -0.2983 -0.05862 -0.77016 -0.078826 0.41097 0.012313 -1.0576 0.23471 -0.36248 -0.064671 -0.29534 0.5587 -0.22236 0.3812 1.0285 0.30456 0.15843 1.7174 0.19659 0.62163 0.14294 -1.2228 -0.3065 -0.17916 -0.39849
